function [Y,Xf,Af] = myNeuralNetworkFunctionANN(X,~,~)
%MYNEURALNETWORKFUNCTION neural network simulation function.
%
% Auto-generated by MATLAB, 08-Feb-2022 18:45:20.
%
% [Y] = myNeuralNetworkFunction(X,~,~) takes these arguments:
%
%   X = 1xTS cell, 1 inputs over TS timesteps
%   Each X{1,ts} = Qx784 matrix, input #1 at timestep ts.
%
% and returns:
%   Y = 1xTS cell of 1 outputs over TS timesteps.
%   Each Y{1,ts} = Qx10 matrix, output #1 at timestep ts.
%
% where Q is number of samples (or series) and TS is the number of timesteps.

%#ok<*RPMT0>

% ===== NEURAL NETWORK CONSTANTS =====

% Input 1
x1_step1.xoffset = [0;0;0;0;0;0;0;0;0;0;0;0;0;0;0;0;0;0;0;0;0;0;0;0;0;0;0;0;0;0;0;0;0;0;0;0;0;0;0;0;0;0;0;0;0;0;0;0;0;0;0;0;0;0;0;0;0;0;0;0;0;0;0;0;0;0;0;0;0;0;0;0;0;0;0;0;0;0;0;0;0;0;0;0;0;0;0;0;0;0;0;0;0;0;0;0;0;0;0;0;0;0;0;0;0;0;0;0;0;0;0;0;0;0;0;0;0;0;0;0;0;0;0;0;0;0;0;0;0;0;0;0;0;0;0;0;0;0;0;0;0;0;0;0;0;0;0;0;0;0;0;0;0;0;0;0;0;0;0;0;0;0;0;0;0;0;0;0;0;0;0;0;0;0;0;0;0;0;0;0;0;0;0;0;0;0;0;0;0;0;0;0;0;0;0;0;0;0;0;0;0;0;0;0;0;0;0;0;0;0;0;0;0;0;0;0;0;0;0;0;0;0;0;0;0;0;0;0;0;0;0;0;0;0;0;0;0;0;0;0;0;0;0;0;0;0;0;0;0;0;0;0;0;0;0;0;0;0;0;0;0;0;0;0;0;0;0;0;0;0;0;0;0;0;0;0;0;0;0;0;0;0;0;0;0;0;0;0;0;0;0;0;0;0;0;0;0;0;0;0;0;0;0;0;0;0;0;0;0;0;0;0;0;0;0;0;0;0;0;0;0;0;0;0;0;0;0;0;0;0;0;0;0;0;0;0;0;0;0;0;0;0;0;0;0;0;0;0;0;0;0;0;0;0;0;0;0;0;0;0;0;0;0;0;0;0;0;0;0;0;0;0;0;0;0;0;0;0;0;0;0;0;0;0;0;0;0;0;0;0;0;0;0;0;0;0;0;0;0;0;0;0;0;0;0;0;0;0;0;0;0;0;0;0;0;0;0;0;0;0;0;0;0;0;0;0;0;0;0;0;0;0;0;0;0;0;0;0;0;0;0;0;0;0;0;0;0;0;0;0;0;0;0;0;0;0;0;0;0;0;0;0;0;0;0;0;0;0;0;0;0;0;0;0;0;0;0;0;0;0;0;0;0;0;0;0;0;0;0;0;0;0;0;0;0;0;0;0;0;0;0;0;0;0;0;0;0;0;0;0;0;0;0;0;0;0;0;0;0;0;0;0;0;0;0;0;0;0;0;0;0;0;0;0;0;0;0;0;0;0;0;0;0;0;0;0;0;0;0;0;0;0;0;0;0;0;0;0;0;0;0;0;0;0;0;0;0;0;0;0;0;0;0;0;0;0;0;0;0;0;0;0;0;0;0;0;0;0;0;0;0;0;0;0;0;0;0;0;0;0;0;0;0;0;0;0;0;0;0;0;0;0;0;0;0;0;0;0;0;0;0;0;0;0;0;0;0;0;0;0;0;0;0;0;0;0;0;0;0;0;0;0;0;0;0;0;0;0;0;0;0;0;0;0;0;0;0;0;0;0;0;0;0;0;0;0;0;0;0;0;0;0;0;0;0;0;0;0;0;0;0;0;0;0;0;0;0;0;0;0;0;0;0;0;0;0;0;0;0;0;0;0;0;0;0;0;0;0;0;0;0;0;0;0;0;0;0;0;0;0;0;0;0;0;0;0;0;0;0;0;0;0;0;0;0;0;0;0;0;0;0;0;0;0;0;0;0;0;0;0;0;0;0;0;0;0;0;0;0;0;0;0;0;0;0;0;0;0;0;0;0;0;0;0;0;0;0;0;0;0;0;0;0;0];
x1_step1.gain = [2;2;2;2;2;2;2;2;2;2;2;2;2;2;2;2;2;2;2;2;2;2;2;2;2;2;2;2;2;2;2;2;2;2;2;2;2;2;2;2;2;2;2;2;2;2;2;2;2;2;2;2;2;2;2;2;2;2;2;2;2;2;2;2;2;2;2;2;2;2;2;2;2;2;2;2;2;2;2;2;2;2;2;2;2;2;2;2;2;2;2;2;2;2;2;2;2;2;2;2;2;2;2;2;2;2;2;2;2;2;2;2;2;2;2;2;2;2;2;2;2;2;2;2;2;2;2;2;2;2;2;2;2;2;2;2;2;2;2;2;2;2;2;2;2;2;2;2;2;2;2;2;2;2;2;2;2;2;2;2;2;2;2;2;2;2;2;2;2;2;2;2;2;2;2;2;2;2;2;2;2;2;2;2;2;2;2;2;2;2;2;2;2;2;2;2;2;2;2;2;2;2;2;2;2;2;2;2;2;2;2;2;2;2;2;2;2;2;2;2;2;2;2;2;2;2;2;2;2;2;2;2;2;2;2;2;2;2;2;2;2;2;2;2;2;2;2;2;2;2;2;2;2;2;2;2;2;2;2;2;2;2;2;2;2;2;2;2;2;2;2;2;2;2;2;2;2;2;2;2;2;2;2;2;2;2;2;2;2;2;2;2;2;2;2;2;2;2;2;2;2;2;2;2;2;2;2;2;2;2;2;2;2;2;2;2;2;2;2;2;2;2;2;2;2;2;2;2;2;2;2;2;2;2;2;2;2;2;2;2;2;2;2;2;2;2;2;2;2;2;2;2;2;2;2;2;2;2;2;2;2;2;2;2;2;2;2;2;2;2;2;2;2;2;2;2;2;2;2;2;2;2;2;2;2;2;2;2;2;2;2;2;2;2;2;2;2;2;2;2;2;2;2;2;2;2;2;2;2;2;2;2;2;2;2;2;2;2;2;2;2;2;2;2;2;2;2;2;2;2;2;2;2;2;2;2;2;2;2;2;2;2;2;2;2;2;2;2;2;2;2;2;2;2;2;2;2;2;2;2;2;2;2;2;2;2;2;2;2;2;2;2;2;2;2;2;2;2;2;2;2;2;2;2;2;2;2;2;2;2;2;2;2;2;2;2;2;2;2;2;2;2;2;2;2;2;2;2;2;2;2;2;2;2;2;2;2;2;2;2;2;2;2;2;2;2;2;2;2;2;2;2;2;2;2;2;2;2;2;2;2;2;2;2;2;2;2;2;2;2;2;2;2;2;2;2;2;2;2;2;2;2;2;2;2;2;2;2;2;2;2;2;2;2;2;2;2;2;2;2;2;2;2;2;2;2;2;2;2;2;2;2;2;2;2;2;2;2;2;2;2;2;2;2;2;2;2;2;2;2;2;2;2;2;2;2;2;2;2;2;2;2;2;2;2;2;2;2;2;2;2;2;2;2;2;2;2;2;2;2;2;2;2;2;2;2;2;2;2;2;2;2;2;2;2;2;2;2;2;2;2;2;2;2;2;2;2;2;2;2;2;2;2;2;2;2;2;2;2;2;2;2;2;2;2;2;2;2;2;2;2;2;2;2;2;2;2;2;2;2;2;2;2;2;2;2;2;2;2;2;2;2;2;2;2;2;2;2;2;2;2;2;2;2;2;2;2;2;2;2;2;2;2;2;2;2;2;2;2;2;2;2;2;2;2;2;2;2;2;2;2;2;2;2;2;2;2;2;2;2;2;2;2;2;2;2;2;2;2;2;2;2;2;2;2;2;2;2;2;2;2;2;2;2];
x1_step1.ymin = -1;

% Layer 1
b1 = [1.3974046625510707642;1.5518795301031549361;-1.482912250864360626;1.4245202871383968457;1.3677570525440112537;-1.2467042710208597889;1.1671256560333667096;-1.1281765178604030719;-1.19091410676005105;-1.2049903776213084505;-1.2528124774179194567;-1.0414748437166125861;1.0648078977077830576;0.84983183076495016905;0.94152775723600568014;0.87952553009077505397;-1.0781276688598544489;-0.98767916680958489639;0.89243583723445540912;-0.80398308669730855769;-0.97126708885272583505;0.706236977033915303;0.7484688564790058507;0.87434995246778446365;-0.5926953738233857738;-0.60588572028822074156;0.6308837737756921582;0.59737639512670859254;-0.56799789274325251931;-0.49807290212037469423;0.4201469813944349041;-0.45527623435642738947;0.36669899853059523265;0.37252932041584096989;-0.2141529262110850873;-0.38172869928774172399;0.22828299884796032782;-0.022422393417002136479;0.094358530122914910376;-0.19295992810478207469;0.32987815294177064152;-0.14211445476008624511;-0.19135926373329048555;-0.10646458009070905448;0.095562755198435711534;-0.089191132041337009562;0.020803496106777771835;0.089333566879374201597;0.056862651007854723983;-0.25711230820855929258;-0.039563920745494654541;-0.40339072941974540853;-0.3663230946910148722;0.33469054398669573214;0.19675499849973235311;-0.09882621007699124438;-0.43821956056871280705;0.53104514338821906527;-0.23666861514883466566;0.43817845128470483962;0.57670915921717968988;0.5043109035533852591;-0.64069896412383864348;0.5442081273238776884;0.63606086720277765778;0.50229816452176512254;0.64501732728583494048;0.7979258591106805909;0.69805187216202824185;-0.86550726142290523857;0.79740895714480464207;1.0726973816437892495;0.95591350595685820046;0.91329676355121958142;1.0063062219503231542;-0.98920571279209779103;1.141874709824138634;1.0800339627999784309;1.0723721681970694863;-1.1061684961836182328;1.1671767350370627625;-1.2123430174659042269;1.3005781026458285154;1.3128103922316969321;1.2540975844782875637;-1.4336150108683292093;-1.3339801353373159643;1.3883627701242862162;1.3771007667710899458;-1.5015530147231788138];
IW1_1 = [-0.041494804562787986069 -0.067782064243814513227 -0.036245417686875988639 0.030900071134440369736 -0.010483536659685200459 0.014078968500566243702 0.064044798083275927825 -0.013279679669228708003 -0.026288584763412899126 -0.01456072181002840589 0.012403168668029760854 0.044319502427872616013 0.0044551084441940324091 -0.0022883589842117688269 0.03327048295999517763 -0.0057025326606025047299 -0.10609326761682066897 0.051007328934252180175 -0.077297209155104934508 -0.048185632760266390584 0.080845889616377134002 0.044498347483630990018 -0.060794494225117928776 0.099544981270094576309 0.052306815658970870486 -0.060186514411405669933 -0.078002107621611679877 -0.047354035728627091872 -0.021307965944200167596 -0.066794350424067658323 -0.009299924681756957523 -0.0016463387410386512433 -0.074571589723487791135 -0.063524246503779205342 0.061323258298428058588 0.010410111046087890119 -0.083366767765283331104 0.0067037093184819426112 -0.032654046182583412739 0.020964194535904142475 -0.002989872719388957014 -0.0081381544423213512951 0.067603465261044035084 0.034959034155467708094 -0.010229657076207982272 -0.07528333759286946758 -0.030449517173007603632 -0.091670062148216963083 -0.068822079459455662298 -0.082301859278896119521 0.031203407408697547004 0.088111260360041923634 0.071204091038468003694 0.0065702291316965090798 0.038304437323962700623 0.004227403461968216522 0.0096272046917401845473 -0.096905441696217800573 -0.017375702258480677648 -0.04115877858140564588 -0.066150775260256283739 -0.020522640591637362345 0.086753210441890826754 -0.056608389649815585298 -0.063043799965704763744 -0.055526183686280254637 -0.066308125988918248384 0.088025046385179092634 0.013858096336958072858 -0.039381858485575169104 -0.047481269062689158977 0.019218122945105647198 -0.080141349325357949529 -0.13076062685445838385 -0.02193270945373343786 0.00085795137671211140103 -0.057607040959359333276 0.021534395414949742548 0.0158589595219237392 -0.10958528206600985644 0.061595564835972685391 0.081542314015769210012 -0.048593615724111423326 -0.06966164307866652694 0.038102995551820055542 0.0046942688931784952791 0.014987107789930042764 -0.026774034540015791139 -0.048521942199325769629 0.031976084481518042557 0.046647973759102095981 -0.11837737458174785177 -0.04931673116754510533 0.042064518218784804904 -0.0061812277953739325903 -0.031179942061204932169 -0.014928650480064120307 -0.0049515009360176541822 -0.028677529410642794289 -0.034632445233952188768 -0.11860574744141356984 -0.10894512472350391386 0.015622492402437957934 0.0081012303982414286124 0.011001583627433371426 0.035242729882371724714 -0.06357900044809408624 0.043633555622603334423 0.026359857643633011898 0.022219886555754020385 -0.001770789465680624097 0.016947105334739170912 0.026639073887201450419 0.0091333719961535705933 0.018164610918733382211 -0.0079055076703693008544 0.042273244858642901323 -0.0007120095824984492075 0.051719717974925950854 -0.042320843059026898303 0.046910515669611047018 0.077215446254332811837 -0.10406238068686581022 -0.084905872577461335982 -0.076354120772409897477 0.0012261758493522772334 0.023697362075600414411 0.061966441787374731964 -0.068803885549994003856 -0.073224807527165328147 0.034903251247411240521 0.10249040560527877819 0.033902872500474655337 -0.0040815215045326069462 -0.0076481052118184530628 0.013020735340967710958 -0.038015912749832958539 0.053006823137609300478 0.070941470965204547761 -0.011135742332920795655 0.058132876199883540269 -0.033337999663895216684 -0.027142545747840498421 -0.022035640783016077759 0.0056527097383706368869 -0.034817496324225295778 -0.092794071750238529828 -0.069806838023773826185 -0.0092801952658192066875 -0.12321096014711734046 -0.0064946541217035143323 -0.054198469708795486699 0.034994826926194898264 0.066222584643245735458 -0.050603968958871238526 0.068580482805930237378 0.00378052445045140963 -0.044415795961790495439 -0.025590368286341643594 -0.0074297630504282985084 -0.040195583357093896126 -0.11350249281147962999 0.010005733131730681212 -0.0537143451582265119 -0.030702117832522135554 -0.087654550631691321994 -0.048123918825603767546 0.10696276172476737454 -0.044212929633389748407 0.057139202822524576275 0.05746830180786099973 0.017250482389615046097 0.02743996740134862361 0.067757981288625146465 -0.026286313713385255769 -0.020618526324493607199 0.060104554657704152565 0.03553071774144991174 0.038953325788192466606 0.00081560875189719077814 -0.060876455125472545005 0.091693765312885811003 -0.042448324495738869178 0.026621564305938733019 -0.079213589333659836789 0.064548832340547299125 -0.023157370758042833403 0.094592627787939045914 0.057744684832579912248 0.0096503585345823206243 -0.020696602608062268647 -0.037797974770543286971 -0.11982479751879869523 0.027719964983425833538 0.0025768185925022107398 0.099842433522360871101 -0.042417110060885783451 0.01837513653788892462 0.045080193383165476084 -0.019909454147874473123 -0.0267404430593356085 -0.047464655388531021285 -0.037799151549033495334 -0.016102407716277904182 0.030200451565991728864 -0.10941755484248547048 -0.091700157509762195152 -0.041949460809677291406 0.030186845977883736136 0.015566272867341806804 0.031010125933610792337 -0.014845117399961166305 0.034317888367823901064 0.062990479462291110169 0.042032649692483915749 0.029701127187496005611 -0.096450949491946713632 0.017803419213372397023 -0.0040406423652977170938 -0.074150206599556886533 -0.10174606038204767056 -0.049004299581754236226 -0.062960340844178411257 0.096078991511489839072 0.020893956615781913294 0.077067044782046345563 -0.011114832778214664422 -0.019631345245736644273 -0.057491679227334772928 0.062455769904090269184 0.062207204903157301001 0.047732027826183694164 0.11233728299589511301 -0.050420827636486385825 -0.098015972613090848742 -0.034733728471277404426 -0.05144480911386121319 -0.082770522505710042438 0.011948492030464044275 0.091577525305573115322 0.097864916103981569595 -0.019788657735143946881 0.020476280651885541556 -0.094557823558464412783 0.031318849736855045029 -3.2329559894854215801e-05 -0.013757090583982133081 -0.023388905230418977066 -0.052980028139789796249 0.01736419081822218255 0.00043694489970828821399 -0.010358267984344811385 0.037844181307703950168 0.06929120782709613513 0.10211605831732259442 0.047415508450486136549 0.059122948676558415015 -0.0109160341868165707 -0.0152675868193651431 0.10082910552602784848 0.090592879742799670151 -0.053591370686289066527 0.051113556496826549613 -0.079283266314979117251 -0.053908085392257165669 0.014308897512496168009 -0.0040262842472344002528 -0.024091467895082548101 0.073663179346608570475 0.045190253926923114325 0.016271809350187280141 0.038187205817931661744 -0.022459667444884492959 -0.052843877566636152099 0.094312418564811553723 0.059005718800214733422 0.018732994125279154446 0.00795696674981600377 0.00058794098927695583046 -0.02815539744861525473 -0.014941566508034678437 -0.057107422299319504644 0.029106125660743130401 0.064686058075397068201 0.074895226661998215434 0.098311744012955254446 0.011271341646174531242 -0.042817985142470843529 -0.010885453418918337315 -0.025317415538298360111 -0.070428602810941001722 -0.063050621012926272302 0.027132355097868578186 -0.062369224036472895034 -0.019682099590102170028 -0.0062300274175778706798 -0.029643242819507163721 -0.072172375649870085246 0.025990100676030275517 0.12869618843594610169 0.083554296078643813805 0.00036469272959233929978 -0.023951980957014860907 0.077793527753024088733 0.044411761550218038785 -0.090866717047190750933 -0.034180269030785796758 0.0019749376970384043863 -0.037185759891401097554 0.076028955774852316485 -0.055515314195751508386 0.016099975503837044011 0.054190852833604225003 0.076789970977132790408 -0.012945381529468209456 -0.057060229749646536324 0.015775701623344125929 0.032757357451258989345 -0.013055992886428892732 -0.043470798278515514201 -0.074502266812218470582 0.083870130008921961462 -0.10193799107756321143 0.097963147472403089289 -0.05957907556094089313 0.012629963420677299546 0.065424454580988278263 0.083227835646754039223 0.0046748474673908111537 0.041351405612355736363 0.05702630977341545393 0.033865027021533974927 -0.0069879043452856183169 -0.050805246496305425663 -0.024770651955760582957 0.030915310563330536398 -0.04580443872647579906 -0.028409125006216437437 -0.04490964739766354491 -0.011706893160797442535 0.055545933858229618041 0.01312518502990859745 -0.036157289624227026414 0.076237893798327918682 -0.032039106779753065424 -0.034208645497966358451 -0.098607975807193146145 0.0048985794013583269096 -0.0044903454456412441459 -0.04553756826974137556 -0.075200678093466657992 0.026015983822616606247 -0.041573404836722914479 0.058820523682130310128 0.097788047053680535181 0.051758535842565893403 0.10211872032809968247 -0.047495685526664097043 0.05512413057614930223 -0.071794767037509449326 0.062738039345616863907 -0.021956849065684545114 0.038957084301534779247 0.032336227400561877443 -0.063224871180903183254 0.057299000671899927295 -0.072609019848896505511 0.054822837448247521697 -0.086091172598364920643 -0.062747236204982986818 0.059126417835291024405 -0.026399573318935096178 -0.017680063701433816614 -0.072984215167492233478 0.061188089335705131422 -0.016350078624795337523 0.0059661323090320975138 0.02053387168219875103 0.018821047315453746929 -0.049631102265032991938 0.05614533549058538936 -0.080270419750064631037 0.071139322719173087028 0.028388221365845282829 0.0053105537083044272381 -0.023966827230016560929 -0.031465090801916138774 0.064220269167008639521 0.006657240285974794225 -0.033756366751673171078 0.058144106676743453899 0.018386264397857034897 -0.029100779313166909301 -0.090282420987071620999 0.069016323210709842884 0.026213658717960219846 -0.011772190539926775249 0.071518855157802777023 -0.064637337831632862839 0.11165926982933711831 0.019922426816967896135 0.062575026316035550766 -0.0013184228903676577238 -0.034068831938822929928 0.0608020684427717506 -0.08624354223431428268 -0.06033764345856126865 0.039239762908718299472 0.0333498789133665971 -0.031574489230334346068 -0.046567376146091091216 -0.089079402470993496177 0.011917396446738171001 0.034550025992722055435 0.073204676088706635562 0.046930335964325518849 0.092974860746966231373 0.0056880515794079889932 7.5385544854348566363e-06 -0.056655037337067282177 -0.071742497009661371221 -0.085077905055729721728 0.014412653372598649079 -0.055279485727631694214 -0.029641003344985442092 0.10150165876556437039 0.083125095579476115937 0.11205715286532302866 0.0098711122624483838006 -0.069721038469472002008 0.081398672050877723949 0.067051311998215443189 0.073187033227001208058 -0.006706305702170616001 -0.053939848790984998295 -0.049278994153675072243 0.057858278049303553392 0.048404998790705332234 -0.097141920835962930481 -0.01541543581940145978 -0.0045726508350559472854 0.046254381239795014369 0.08706063640708436302 -0.021286758567104158146 0.049013471393072396975 -0.032429270776166557733 0.066120696912439200221 0.091314993246199016586 -0.03555547170042760996 -0.044737723412548030533 0.013933378648934310537 0.015449203896803480329 -0.093059063248633611121 -0.020213761229091718047 0.0047235382201323171045 0.019484466878706925563 -0.028299587855518604923 0.0040337419105427240948 0.018260664688886641543 -0.062520337830675523638 -0.01967811960256247647 0.015325865849865500171 0.068849993152702917976 0.076289358540845661483 -0.073131707590805394847 0.056498188985464541101 0.039686843835818608195 -0.015780376350322356666 -0.072645688927688911729 -0.075957276620879116136 0.077684655817310765968 0.045849512312556975346 -0.015282923283913759163 0.064223175037111335239 0.034711488835492645966 0.03236210493352577322 0.040879831566705666923 0.071735761205991885325 0.018260883809097586128 -0.0045030455449652411273 0.089850275567655207842 -0.071060053046087034989 0.068633861740410445629 -0.098811895310339417642 0.043085061174238228898 0.066723309663138483105 -0.076545041202851091255 -0.045236578408922721584 -0.077501767147041364381 -0.091971393762154407536 -0.062266271927748209625 -0.05821681373237458379 -0.060370749365730363989 0.05298065239507136065 -0.035189001377627412981 -0.054279144560079185811 0.031227643037939623039 0.0086061572720942287884 0.021243568366547720128 0.11235795245953633659 0.046895385407197689998 0.045674503607724514787 0.04663623276489142766 0.034935267010445442137 0.014332749041207073007 0.034560058530617270012 0.046814462185270605543 -0.094104910352081655445 -0.04690120231647706972 -0.096798567032436541591 -0.13282762199132000513 0.061747890694259024991 -0.0069549848125758347364 0.040021232558590830175 -0.085385557362649286417 0.050013185132041490522 -0.012893947177496896742 0.035334458172761019912 -0.0014887876659869449421 -0.075872498430341495101 -0.079028380785539101283 0.045315762444600754533 -0.019153327483558760247 0.035157044260846093131 -0.01296922943661273607 -0.015649016318077867832 -0.059622616592733344854 0.089036526427352033486 -0.0072586516593219976845 -0.031906263153335258365 -0.03534259339572980857 -0.079458604781143193918 -0.01071532626692892759 -0.012441031878332158706 0.05250566337643942233 0.064847431577777212008 -0.090163317884105073641 -0.12722926510163462543 -0.028536313656023912927 0.024108924192306528667 -0.14768460599180152637 -0.077527014940895852546 -0.01640533241982417012 0.045515438642419012161 0.032205869250927117442 0.0023277766608344402713 -0.038477878615552553454 -0.0063449286445185137592 0.029435627500249458843 -0.088508115257938432818 -0.060953304260348228905 -0.065511531909992634648 0.029306175192344838254 0.04127459886590637006 0.010834852162296427017 0.006039701338314594839 -0.0029703949925730466566 0.07683785862911068909 -0.083856678290631148087 0.020125830477984423678 0.043328767377521032467 0.077907388033511465464 -0.0090871715660428235145 -0.087783071050280103709 0.060641802084911169968 0.049093300185389418533 0.00062948095310298073177 -0.067438503102053723448 -0.05174547628255213999 0.048736550265986056107 0.011427348107924003434 0.049739888402698391456 -0.054389498556665819007 0.055967501444724933324 0.029485539407988939353 0.00083659017982378792479 -0.076087302049454672015 0.03562259604538042107 0.098720794476908249604 -0.012830265542818998503 0.099848592386642801011 -0.034801084667810212869 0.04821587355535663505 -0.016154485324381812755 -0.052122645745794948802 -0.044189501531766268994 0.047390961214907205423 -0.052341972616286355779 0.083886508890798364146 0.035054634564191347601 -0.036051824121645981158 0.020221709438077259402 -0.097202821736554603782 -0.10987442567569463692 0.06110254433901286808 0.085088753075579975915 -0.040286977046325084251 -0.022701137941793039093 -0.069003596603030112333 -0.050365675970729148481 -0.053231245707940827439 -0.03245207282616850708 0.10632298834652197106 0.10950144992668235655 0.015516955951954111703 -0.10057930230134767835 0.017412835676917422928 -0.043669204891598263629 -0.035108195498294046677 0.042124163019913798967 -0.10285438583990089145 -0.013189552212334809678 0.021618431134668977811 -0.022789003764661537599 0.1092583158457019199 -0.071965569640225685033 -0.071752173712734124145 0.050758802109711106954 -0.040639846615911939809 -0.014364937099264887474 0.043212112936508201289 -0.014897362380365193266 -0.078314952258711004185 0.0038078326512545686462 -0.063586026969887660121 -0.022780131863096634431 -0.02284261456813586888 0.035069183475007037476 0.025837934591536784734 0.021699858630972762574 -0.069072651383836461414 0.063496792044618680095 0.0083617759188510023399 -0.013630034635790251249 0.057035085304955636387 -0.052561982899622730625 -0.017798464433331582374 0.019174538594610854997 -0.031660646307818778034 -0.019921198512893568966 -0.073006896855271535829 -0.025133034558762517435 -0.0081765590402429842026 -0.0027193750042551678367 0.0002663763868710650488 -0.073228381183099516827 0.008467331892735196347 0.02852372723812128183 -0.075793667134412434638 0.025972107306138719762 -0.061696667345148246964 0.018513297928928095643 -0.0020271476195376264724 0.034831794587880167413 -0.074165159023685145456 0.032944504725343812246 -0.071700945494595838547 -0.036596746658893918036 -0.062308914399098899728 -0.0037866558080633973271 -0.013532974141981958874 0.020297171344791829772 0.088030934528072785072 -0.03483704353663612252 0.10992568674425610975 -0.041684620797163535189 0.073273757810401851653 0.045897368851818894087 0.052824992839114827403 -0.077364198584757681854 -0.061451728725580120893 0.025772513574179225365 -0.097412463656810693857 -0.0067459930753904218115 -0.099844458474879493881 -0.08123962305803680839 0.059776232622175802522 0.063042162936226248116 -0.093353197838911508577 -0.071698222891245458332 -0.079416107255381673813 -0.03201855464906692289 0.012333978263348433987 -0.00073479649335070427313 -0.048796962291716546034 0.033689598052820103613 -0.079374725438529053489 -0.060617216199078220729 0.045694322173123309849 0.021489416547102367649 0.11848757604860785109 0.12145342208373118009 0.07603413505211473189 0.067937050408283627956 9.4774523413422356519e-05 -0.030844228329941433125 -0.061561381312576365921 0.0029095786458901949645 -0.096511013914193435892 -0.04435103578579990824 0.057605230794840624198 -0.074701930216817785668 0.060464445372482564234 0.022422066303707768181 -0.087504218646951709148 0.034403558823026265945 0.044343212314629440463 -0.016637622130106256846 0.076637697996300130354 0.073673184003716543633 -0.084765654992405625734 0.020957926358168586789 -0.019938277100835902905 -0.072487216903438719817 -0.032070432134481574593 -0.068908492277964417116 -0.045955360373388765005 0.04252388953700681623 -0.011778501442331680213 -0.016842742816829604779 0.12966648525178034457 -0.050280217519240583135 0.10939880742210877917 -0.02894181361218205531 0.028279087715848961332 -0.077978362951232782496 -0.082365696473128816035 -0.059070785621962156042 0.017045681413308123864 -0.0016370493494350186938 0.10351479895030421541 -0.078557008100503658565 -0.0039982710809593775131 0.075133066531596306992 -0.042658308112097420572 0.056591413799755310721 -0.005322014709760023235 0.021115954688283040952 0.012348434961286207032 -0.036870644190061523104 0.0069721560481901699233 0.03057819114423410492 -0.06227413252574808683 -0.059422913244042599445 -0.043771272496008539754 -0.051613711956586795504 0.099279855326880855904 0.096828689617743102236 0.093147848481710385227 -0.09532621250483060138 -0.049128858719856866033 -0.082845814150885849214 0.011844199070802259588 -0.052557572592367630959 -0.056483048447458328312 0.047302010191175677956 0.0023937178911379859529 -0.032053931427767981543 0.11098012230717020643 0.11238670765018912712 0.017741450868569905858 0.0043331876200297658741 -0.0020452226659480494952 -0.03677381741624997924 -0.018743041144348094457 -0.090401090464977656991 -0.012318010839919733487 -0.0064890524411073515279 -0.014279875472397970601 -0.037448085308524281523 -0.04191121022128327378 0.028882988373632890317 0.042961996094028953586 -0.05387425079937342709 0.0191829933386444898 -0.04162213048697304546 0.015221247813898672666 0.072629375282585159623 -0.07945875293591372901 0.029652158184931432655 0.046534345184630419856 0.015231388829237085467 -0.013488089646237339664 -0.021908225952384695334;-0.16195236779888544376 -0.043087017542337402443 0.021285848903569291879 -0.0047364591782256071709 -0.028459277140453192317 -0.038401680388397051169 -0.00038172344232617741238 0.06482763684147602179 -0.070667680362336796063 -0.0044221326829324151056 -0.070182579486751273112 -0.027514206445279888735 0.091796689557317040498 0.066474602041929939378 0.033990425876827108642 0.034656115755674100909 -0.068484804979539626313 0.034196731738353761121 -0.029248203936458262026 0.069451891488125000462 0.0058278228529693928972 0.11310805121037283139 0.10188524782165662985 0.15440056495959456062 0.098903795419056181326 -0.0033281862947794563917 0.099700846188333608344 -0.031022494072755049666 -0.13024743997622811875 -0.0016676342125987713566 0.027559163352242364853 -0.06063276697585447822 -0.048893777211353614542 0.057864624194438545046 -0.022044773023304879006 0.031167725694814390341 0.015605481523182503437 0.052920412399252249325 0.0040529373954415357992 -0.022554299373619964703 -0.01270569629232129287 0.049694317834008953916 0.030827084114099050777 0.11705502403735840167 0.013863363372456463316 0.097541402183035072482 0.11973846538026901298 0.087552882891341138327 0.086662793411854871506 -0.052153563864438451381 0.098630763313999308961 0.10613545989878726827 0.069418151874804948087 0.10568693787979735466 0.012821949677579040638 -0.043711779343667100939 -0.16738525196055892286 0.064191065229973351403 0.059313037881184832445 0.064657217459397134385 -0.092952800644851341083 0.012342041847903582191 -0.056221571142600700044 -0.04614166126787443839 0.00019616232654966897497 -0.079077086997983686567 -0.087899127213473607356 0.020911353396428342122 -0.020643303680359402497 -0.041409534315421027417 -0.038180053522143424238 0.082090849486215256015 0.071324837601729626502 0.071196356719242029354 0.10053215523091862948 -0.01415355459959122611 0.055085641861332843017 0.048649991512970704177 0.083867800267653960788 0.030378596026772234501 -0.0079250109867208019809 0.074889632053874624629 0.047107877651059594515 0.059715213525274951634 -0.12556886599625011192 -0.027458915036933474046 -0.050908680059950382757 -0.08350043233399931375 -0.070138482986714642542 0.052148046891256565061 -0.015238463730688907652 0.045642960444840133261 0.0034182646611210509846 -0.15679237359826111997 -0.01757582218889203185 0.018069186818379160547 -0.054023529041932021044 -0.045157388649200283504 -0.050180915339135732933 -0.11853433358306980638 -0.026746256135500186962 -0.0041607054520733611699 0.11221289072691412181 0.061344293996878261621 -0.064850169890255021654 -0.043012479863870960173 0.033506845956644909501 -0.060143415462452498588 -0.014328481606808302073 0.08210825459545607885 0.047361182449981997777 0.023398325551416316453 0.017342916490096789428 -0.0043258210614608516922 -0.0093251898635950004196 -0.14589691788105549342 -0.058248316986026463238 -0.091085575511166264051 0.043944516932993039904 0.042660911315301676405 0.0029480291498704962357 0.033957058530291954479 0.00032780584894143464329 0.020584319876922524406 -0.0081867923565550563408 -0.085720184332937487959 -0.0083165025523787641792 0.015533620873336193013 0.05824105536539178618 -0.027076431286189275166 0.056254436734049048652 -0.026264828654944262498 0.08572445441540002542 -0.10243966308421957601 0.038277594046982152398 0.098168139376509727656 0.073507440423866518553 -0.077074822930181891012 0.087926611526085926562 -0.038055426321767157893 -0.18181455783946748328 0.040830598077860165429 0.04019374608230586593 0.0080484785897736183663 0.033674116893804451056 -0.052582627206287473054 -0.028383062426586218308 0.03788203891517980676 -0.043569653831929122667 0.013996069568166305541 0.019930341582202297512 -0.021220686622385399184 -0.023352047486798178932 0.059266368653144281542 -0.11510274399897740816 0.032788164811243435126 0.020252848920714952574 -0.0039182654403829442896 -0.053707650180126166595 0.012054289835352029886 0.067426184161845842402 -0.084462321573139181874 0.028629490899469881016 -0.0064363070644090514955 0.059134572926924811043 0.0028913942165786311531 -0.025500301274918858035 -0.1141962091610586455 -0.062875043314324863264 0.032464370873211551016 0.025494299016086730686 0.047170980022814772148 -0.079130626791521510577 -0.016432302658251459609 -0.042106934136067537822 -0.022717998801855990992 -0.047996434000464070768 -0.06177759313330672547 -0.051536959958164804685 -0.049073126824990466466 0.04689809312145865744 -0.039848299781067936243 -0.023759619754960947108 -0.07997625085617959817 0.0064191207533191704457 -0.010866690708049178346 -0.062146267851398713511 0.0020562209363399076151 -0.0050592673323828010745 -0.031636266624177254714 -0.020992182219296023904 0.041703045335570121388 0.056677872581558923215 -0.0016293521833235543976 0.071775148223100729283 -0.0032160527380472496775 -0.17365260894888073784 0.052177963489336919023 0.10816280172117714864 0.013811747556572767995 -0.11264916817743676758 0.0037979260221124573442 0.082197889495121717607 0.028553982341487742919 -0.13628793630846636198 0.0014194857413795869058 0.021494621861083359343 0.051396771383965755842 -0.0036590984956370500164 -0.04753358207131130192 -0.037836259425383579613 -0.027555838068220560311 -0.02543136959941890568 0.047840419201871840771 -0.03348313228333116981 -0.049006630430777131657 -0.04018107111019054295 -0.023722697546865966628 0.072306537654271654803 0.039070815348810260248 0.040774455987733451701 0.13099056343370732436 0.065885259930700268427 -0.0013453205461692364659 -0.122115470715453589 0.10025389598047822204 0.11209975546094855248 -0.056935726923250148945 -0.043002452628606031848 -0.027764955170640280568 0.027929408475207175011 -0.021547590562117129032 -0.090609363179134122523 0.015013640547641609116 -0.06848790185093149574 0.037729441449413828047 0.065605462248903581579 0.039024548666393710228 -0.02105766609659694491 0.0036909198563925878916 0.019222814781012762669 0.0010855057193464670053 -0.049336736848768145136 0.029113842726062502675 0.012588836988360519245 -0.031329436436153837442 -0.022878097788036556165 0.060453912981718462005 0.058589096767849742353 0.049846291843850816516 0.0060988085889854392468 -0.083839558477973141759 -0.080581120837474790042 0.014586923272699831369 0.10342355824577595391 -0.018109735980734911753 -0.014960002394649962038 -0.039308101417034481406 0.064929849466174319184 -0.055999098065166411087 0.042626400744662090725 -0.042119417806586893771 -0.020707030622105923601 -0.012960789219680357576 0.079958012830354377454 -0.070692541187562144001 -0.011399309797456838242 -0.01604752733030312753 0.023309453351374222196 0.019046726328899667852 -0.012183755048602766882 -0.0068662847668506336168 0.039417646821863397411 0.107534976041837399 -0.01320069927937249539 -0.0099664023594689642171 0.10970336403745163667 0.10583009965513834327 -0.056965560910788720639 -0.031492175880903076901 -0.10340976131827499251 -0.033814023278947218099 -0.082398811622476753058 0.075387528235274114952 -0.010052258785028064803 0.083150402803030459831 -0.022160811014764591337 -0.10973656233301204432 -0.10948200331426005683 -0.063426849554552897081 0.073672311661275940997 0.025317073773202403847 0.03648838839551484664 -0.005715949983788107952 -0.0048932702250959140416 -0.027359748038429426015 -0.011725452108458947476 0.049750014494234051643 -0.064469819114003165672 0.022585044898284483555 0.051967932340470715524 0.13159228653454102531 0.076320657143516462684 -0.043549253510201106632 0.075710807178937633566 0.018194275815851937428 0.054645434644647432332 0.017699657185218035937 -0.071812433142371914774 -0.12036676986820654678 -0.087662208284681117365 -0.067111152821992023365 0.048816291055707596025 -0.018909420622039790905 0.01009954952781971782 0.12958783309149540797 0.016400957980298485478 -0.1173766335473672151 -0.003326325133340496832 -0.027859929745994143485 -0.038415706774381587485 -0.0092316202124227454695 0.018561989356009084284 0.074281912385942908128 0.10108856360819699904 0.10090586872323328849 0.0090413378256542394074 -0.10934194350662931883 0.011658793108169146144 0.03119192769306323651 -0.084293643127179754271 0.003385619352320493828 -0.046840748035087718948 -0.0039954089297767171954 0.14868645820902570698 0.014774891511984692555 -0.0026781228543452111242 0.057141591265437156888 0.061302665586471329073 -0.023967025175410813786 -0.038932882059958782983 -0.0079743383115094858271 -0.088574544844939678834 -0.018556626414730419822 -0.095316780628552200128 -0.048595041923643451931 0.032711765469719392141 0.013149177689987062018 0.093976563722103265142 -0.055934802124053745187 -0.012587621966408283486 -0.057062894798882185521 0.00110771433302746811 -0.14989447381958173611 -0.046061288158927279901 0.072217077959791112218 0.021118438827363802263 0.084695911059185918779 0.089773724917821873248 0.047922936257610397603 0.048590592740785268355 0.10651642919578913071 -0.016269177353971389643 -0.05168488802061077525 -0.036137535565862778653 0.0033883281399129812871 0.042967277690714768268 0.040051757358402904907 0.067383797058132979818 0.087917598515092676426 -0.032375489103908042243 0.0058067060284515388882 -0.049090551036203015911 -0.01824253226883571985 -0.095837878657725694698 -0.057275390097563792791 0.034586587354075423728 0.0074052044532148435588 -0.0049062484819693778088 0.011175843567226563871 0.073072290550728918879 -0.036773639462557725088 0.0020069730451238278549 -0.051137072856390172748 0.068960410486715528755 -0.072142716921475322223 0.02789318662735863763 0.038609241652331934003 0.099578574090047805578 0.03725615762865133046 -0.082708601989142788158 -0.0095232474958885857119 -0.16230549403652874685 0.040550649412130809757 0.065049078196172921418 -0.10935373095625570972 -0.01697571732273741793 -0.11489961567537848586 -0.10079140218672294482 0.052524731581784667167 -0.013962815079124802145 -0.0081317787965875121953 0.045291955862962619828 0.038173608234521129445 0.047710644819922980175 -0.057612260870110482136 0.09439195753619186724 -0.045404145565194911627 -0.0050419728061472960864 -0.048736555524530267292 0.077283991609959898361 0.12145093364327386176 0.0018617486647288675281 0.058978844377986332226 0.018984360855796363066 -0.0035166459803581298464 0.035121001831639422908 0.0014843247883434035513 0.055349983738478616968 0.0079044471240935221257 -0.10715093778047071749 -0.077584796889393584096 0.016104924036740918963 0.063787620945524592386 -0.11835394974937171741 0.0025916764716420221011 -0.045281725075953412063 0.020129508903993495461 0.036361583620227136415 -0.059998707751699666135 0.10159510500224475105 0.13473391060665990127 -0.097427597710455116076 -0.0080926092407574701237 -0.058340882474469168972 0.055657152162192108369 -0.02609683438398723021 -0.057009239462541730359 0.068167052877605216477 0.07502770041062307993 0.01875403951294413174 0.0060210941053728435357 0.038861369408336489395 0.055650934522623624057 0.045820261990166311072 0.0058559477216472933733 0.11138644272442228822 -0.050963952520320009165 -0.043942519189117179579 0.03093043987860818328 -0.077317988379349680828 0.14463040260725987252 0.041111877269278014613 -0.016731913063783646067 -0.025398399246046185485 0.050539276442470068562 0.022091162953469706959 0.015624646616459689566 -0.093665674162963091787 -0.08424385986519559999 -0.070783783970263913776 -0.08318903318385552359 0.0010607666476376356735 -0.034395979605004796398 -0.036555660585800189843 -0.11234770019366345506 0.065751290757568095491 0.073766471612369988176 0.030010258304152895303 0.16708803044339823329 0.011077105568734781776 -0.056264951058026355102 0.0017654751903687277998 0.058801865016515499074 -0.0085432724398151228817 -0.091746228548856167961 -0.13614987211592147198 -0.059504053489850099179 0.081516902269930927027 -0.10655034187533282686 0.040834448281536178671 -0.025032651761264193557 0.06004144819852473558 0.070397068114943936457 -0.049949234459909064299 -0.056570461964961404888 -0.046836878855749129735 0.0091040663277224351951 -0.034182049838096542627 -0.088094230933787626148 -0.025986899227394739259 -0.0325153914207049477 -0.12804797614367202652 -0.061648829559803275391 -0.021996312396153284291 0.027078560392304017179 0.039089109425752069371 0.067089108446366965688 0.11428914306365937914 0.084760301145386754418 -0.026706999675833009711 -0.0024996624407461740837 0.063804203039885307169 0.062925062893594160829 -0.0031166879095767497862 -0.050609525193580598423 0.074265792964672755483 -0.014419648891393176474 0.020559643855705852372 -0.053149081939501359451 -0.092720657195752564927 0.0062000198895243701508 -0.0046225588015384230095 0.014064179640149658546 -0.087776636174267383406 -0.076988798069835745475 0.028978937729927656264 0.055045174700066805407 0.015135200778017955311 -0.017853371462946122233 -0.033801911417482205513 -0.0093586800072084190549 0.096482208231199878545 0.052034563541240509699 0.054345833014939087802 0.15599314712659126392 0.16200348448424786718 -0.02526609972004002086 -0.035400737881613117408 0.11024690883165526312 0.035481027144705995502 -0.0079414771068391960818 -0.034856195774533811627 -0.060717523769277866041 0.03761745037612697351 -0.028637962009517882456 0.0087827693593758599661 0.00089735457809376659687 -0.065496980579910241138 0.028236095081498848586 0.041082298661450571131 -0.01028400187205468462 -0.081709003391758031065 -0.15810922155318249405 -0.025124844214808615683 0.019852369401270851534 0.060233551658242866222 -0.061484576411609606628 0.077762287582086739302 0.020406989143989948815 0.022177457717418528477 0.052270397768186684095 -0.0079867821377455627818 0.035000670516343049266 0.029583616970422561832 0.044392807345191478974 -0.095176974916865025866 -0.071746253779723379029 -0.00060556780087568488641 0.044182050044537977962 0.066344397546155481349 -0.039353424845983975278 0.037129212047892865001 -0.085167350282152429197 -0.10585649761266957558 -0.095653498143722426317 0.079881981706528423781 -0.050179256871590006972 0.011067181634760376793 -0.06272244486986255918 -0.0013625038989396164729 -0.015330833223368629456 -0.034609154151904006347 -0.10144001243751431252 0.036021185495118963893 0.029476455231276101066 -0.060554867703914910804 0.097715911892584328413 0.10333326929004232886 -0.013420651676605154304 0.034792623058103266942 -0.009301827437247063568 0.016180574434337440665 0.06080878106577312231 -0.013026295749637406204 0.061223103555713441482 0.024205349242589154629 -0.027635815110464426875 -0.10181465099688988274 -0.064383546409934905297 0.014810553150234204156 0.093404338831355099293 -0.068957653951307151807 -0.097410913097190049426 0.013114009927341295156 -0.069881936619581919157 0.0076889782213832675792 0.024070801291111575126 0.05082688181318237991 -0.015818007499494295132 0.023309371479232579571 0.0086028394762876596313 -0.07247776529083164998 -0.080477110425879738731 -0.03510398679232151764 -0.04810094962692925552 0.061849192876449257672 0.058877927257922263449 0.051199531636234162091 0.072934724580092563651 0.089077343967946920333 0.0037471151329324580911 0.040286698442267177001 -0.034071635545146791713 -0.085069775336180569747 -0.045711004595876937595 -0.085343548408525135573 0.02054499910621405967 -0.027345387168188326626 -0.010797340051983253528 0.077953665423250564914 -0.027527341751236882039 -0.0068468345500370978926 0.0062830919268649755918 0.060605859383662342987 -0.023356623778621552617 0.092912322885773876435 -0.019232455553752966088 -0.042410977871675747952 -0.10411049673937486371 -0.14093204365121156374 -0.074848924016077761356 -0.045024971836114882628 0.034800595608715137463 0.10677741081020196423 0.050128574569619346879 0.096462329492726747726 0.07653705520620320002 0.13329363632781771054 0.095635836409787122747 0.091522913791141483064 0.0052772109949994509479 0.013712392678610326249 -0.031781366824890300293 0.077944179161285889745 0.00080565748318179827066 -0.082765929002664356817 0.025786089671990988781 0.067210247547353413333 0.027031191535652719649 -0.043387477823706013802 0.035080295018712660815 -0.051110846583807989507 0.044815154467768299196 -0.064997272707536482561 -0.042513300264123039807 -0.013985636575210997831 -0.086828178662231136897 -0.1340653455436840169 0.013373681768948573328 -0.00099877802746640726578 0.075780182449218858043 0.091293631016637954989 0.019012441732887592344 0.069539842535542850666 0.18549248383051963884 0.12044873132456442033 0.0040538013319434094972 0.010855134164542194763 -0.084678339035908739563 0.022084600954070131296 0.011971242377243130825 0.0030875715352757480969 -0.035976421808414281445 -0.051100802708287221265 0.068954097970074609836 -0.049753323090020298847 -0.029785518938531107408 0.038806434498818896672 -0.07743127834487169292 -0.03646730157967845859 -0.076933530554328166673 0.046770484733232413344 -0.01443249599014040721 0.028037542666988702483 -0.066479385661468132218 -0.021202146800441225294 -0.11179964713558566969 -0.031672438638932605415 0.025114523583406826029 -0.016276185277870267032 0.074541905948158584949 0.017229635533860802876 0.092493340533973927853 0.11272449410012291837 -0.034926851099476151352 0.04427745247430794201 0.027509741902541413883 0.046618046711385752179 0.037276903820991171001 -0.065959935968167737741 0.028407433309046516839 -0.056345445916385676621 0.040721330054510597452 0.025419474339580059447 0.024202674200344873046 -0.088958277932317586512 0.069090653171096652607 -0.0091324731559954113597 -0.15670448153523458545 -0.12540037032582190824 -0.018483599928290260495 -0.042525814238002661305 -0.01626750488071030884 -0.067560805686005684367 0.028153475164539448761 0.0080100297929943855418 -0.13492013603480457196 0.092803871798272527527 -0.054259368240363411995 0.049228941895249567207 0.064667549124960338469 0.15668088869674168251 -0.038849886331338304157 -0.033693886705593999176 0.044640981383571205765 0.0043427023689624000627 -0.068194039143197507369 -0.06254302605960170014 -0.022480767648723493785 -0.096941435556981814248 0.050579208944518151692 0.02983606721344910645 0.013474632535636750508 0.072406980379005364545 0.059942365961496282822 0.012579273571583894989 0.0040392010859506659315 -0.062782781854615568595 -0.057584879925091710107 -0.030750905542163767259 -0.070654513078746636334 -0.074932784597735724308 -0.052544579748088238169 -0.047405102687617529933 -0.090726846232994387553 -0.018667037919221751707 -0.078076203788532597128 -0.037648884211645611275 0.090705576028228804275 0.022464554732364427209 -0.021212006683030422416 -0.04400148448049133465 -0.011787892539012119128 -0.023573597642675869074 -0.085791429071303937359 0.05008965802999287148 0.0083054116978538150562 -0.10627888513035112228 0.018209044139393004702 0.0083416851015783825829 0.03760222126527235087 0.048292794399588917509 0.10666021661583535707 0.11250513621073102155 -0.052387919071722161002 0.020829946679754497707 -0.0407890198289795336 0.028043570344395619964 -0.024709313952622356109 0.060238817830978605428 -0.0037711296968234251509 0.065556352841367154793 0.025581465068246499878 -0.009006527190345125361 -0.041038304435649493318 0.044230178728634148011 -0.0060271991900436149708 0.085813220244969332096 -0.094707003925562652236 -0.044898895705427856184 -0.031166036813616949247 -0.066377594142015883261 -0.13085586896209658314;0.055801845757394670511 -0.024733475827825521232 0.0077009073230213526129 -0.095107100897878743551 -0.0036446624061048666504 -0.076032641905202563715 -0.034024732376131322509 0.056598211060980604947 -0.0052602748315367922269 0.073061200305206269734 -0.02682022898007063727 -0.024285955403464811603 0.046264935733952024244 0.037029371303224353773 -0.015757886394932470869 -0.089862434830538934216 -0.073133731023559175877 -0.029418851878775104103 -0.039573666983166271016 0.025599256399773985537 -0.11807228930154248236 -0.11085388791234820904 -0.11669519258019514507 -0.14802227996675376698 -0.12123285200731294398 -0.048026888766268462094 0.036152903739985337017 0.025194911317284861968 0.044803455686701638971 -0.0093826516676333328315 -0.0060968711667958429973 0.004031613948050693369 -0.089184054862029266131 -0.035846827693563038109 -0.058970978910726196132 -0.034498144908770782269 -0.10871459467751361239 -0.063385910298057138168 0.093719164442570043749 -0.058996187003535774385 0.033772510085702055205 -0.05937397685018417498 -0.044434747767284142606 -0.027344653188072529787 -0.17357044532815435467 -0.15773211550637339373 -0.10433156226273039568 -0.039148687464374852529 -0.046061898768879810939 -0.078124165811256446323 -0.028537042511312935011 -0.06617395108417563343 -0.067511869346999972552 -0.041236575856868858125 -0.077254237965298927504 -0.041356682695903500269 -0.090482515099672616854 -0.060735601944178194134 -0.0049306636051391437153 -0.034165305023484172919 -0.014964481399661886882 -0.0023761293545128906596 0.058696032399914756239 -0.050149563593745540013 -0.0047137811276743175198 -0.068963815249574955679 0.041568552621562386562 0.0049733143055830323492 0.012884971071713657853 -0.083366811036715476879 0.078536896047228660356 -0.092829000881059803296 -0.022632647212459479358 -0.01136884299465183365 0.023153206353088668507 -0.050467385232062622613 0.029929670733263583765 -0.022310972886350494832 -0.048972030790061349403 -0.00026715232019952552412 0.017299187386101505526 -0.043638451501983227532 -0.059831157461040195 -0.089076631596556182791 -0.077859061311410501793 0.067966159605009790479 0.016559598740863226696 0.081009641916364741321 0.0042265991898457009462 -0.014754599440516043968 0.047022864574957995432 0.0038071212973497144116 0.040428352458080900333 0.028270776958089365721 0.015337312656796131885 0.06333033654716155314 -0.079967368329705024177 -0.055383127007776540573 0.028318690843172563548 -0.073550975118403541519 -0.019007700153824452077 -0.071217859510235181908 0.0097237322294286294283 0.0025381200349402512594 -0.056121844148276062159 -0.11649982023433368139 -0.073076098358343638539 0.019079198421452964879 -0.055323574739197300953 0.025041796011133557465 -0.029179570637680757317 -0.059465532702455102532 0.052339857736780147357 -0.070932091183845871751 0.034683345601059178964 -0.052598504301593261567 0.0071666610903324276874 0.040970052377146078115 0.022272516701373961528 0.037774332578458670595 -0.035454780510802322291 -0.013255423520643320676 -0.038482833737572191835 -0.072675873697026133202 0.061416509270824953814 0.022498061445878986264 0.039527349934232909601 -0.083156019527087010612 -0.023361147188684892873 -0.017080146680211030774 -0.065012401668053124149 -0.081973009884675956949 -0.079051527134880436587 -0.0073665131005912556916 -0.048686787524469414545 -0.019422037576342903592 0.024776365451208953727 -0.084209316249940560639 -0.0046640132775352862587 -0.049189921144654279173 -0.041650322421930598138 -0.046786949318589905744 0.048366678359785066077 -0.063661511250998975564 -0.084729326319511064081 0.040048096009440266319 0.10859437860114241892 -0.068442559907093442062 -0.010427353502743728908 -0.027567563961139233963 0.022601530984449422906 0.10996382874385550454 0.041704487106838071531 -0.047790896122915677013 -0.048350356719049553123 0.01290360866026843932 -0.071759927119038058319 0.038213610115925229771 -0.135199680575094211 -0.032650382218563506198 0.0058554150572921199319 -0.045279360769654608543 0.028613685742273201051 0.039580443497491984983 0.1111463706682638275 -0.082348828091696302245 -0.11005214590229248084 0.017188451462299959155 -0.069241207335430404735 0.079819824694004240517 -0.0029343451558730008003 -0.021274371370840105405 -0.0083811599599806392569 -0.12705950811770122533 -0.012982781698030581782 -0.078906892969306502428 -0.038262551149373054404 0.018132723690453208393 0.079686925641280312305 0.077526750467282579127 0.042992307662104448096 0.03539220921918608681 0.04107563720361794013 -0.020477066561911640846 -0.073614794441066735975 -0.0069056091134530438874 -0.094529768633496880081 -0.087697358319447332731 -0.040736168976921789675 -0.037417122608559276464 0.050123813298126297655 0.037588763515496691203 -0.043627976493553183301 -0.042594106156127908847 -0.019980350453742235645 0.011881730184280119011 -0.051541371419760659278 -0.058741359191856155897 -0.047590106455080022352 -0.031576952465899539579 -0.058852295010539845688 -0.11019080647254173022 0.040298970915262556647 -0.026212758371634635457 0.0046455770760094527647 0.082276269854517899982 -0.092908360783201929256 0.07150767460358951888 -0.042157875823379604985 0.060650146268306788511 -0.010836462068979113918 -0.016032588919496625068 -0.14893911415529423325 -0.076320332875863594602 -0.029028990495915257819 -0.14655506500898188293 -0.1157868757659703679 0.057628132946537374837 0.081497505970599321001 -0.02393253814894702805 -0.097756728029370756894 0.027445599760212522483 -0.063102600580422205101 0.062708633885748515935 -0.0049491626344110063729 -0.036313141650544250583 0.054262346769421869463 -0.0050867647588073187578 0.037455607631510984268 -0.044932391869292064024 0.031474299983374531831 -0.057849554628481562879 0.075486221700306541105 -9.2297543870921037665e-05 -0.084935012153751002217 0.040914554421643573034 0.060692773157548021712 0.040754434090586162676 -0.075684081433282729412 -0.08187789833075058421 -0.15531350881264807673 -0.027524268103848358036 -0.1231150477746677796 -0.10624518991285790415 -0.15433760572293819813 -0.08735854286183168671 0.0059945944064849219016 -0.10063882045375042995 -0.078196241198666180394 0.10576949550453372539 0.071557121672951848335 0.025562127146291580004 -0.032637968971311027977 -0.0093166760478467208068 0.045175483686354447888 0.017119916648207132714 0.086661345944421194765 0.028038752032671039605 -0.0084981339437957218591 -0.022773867575035331573 -0.073973386155337578218 -0.049686263645080767926 -0.017159433407481529399 0.035960997335779877615 0.061927035606140823365 -0.013991979341211151222 0.07153282593392622235 -0.094325445642456332007 -0.035922973091083811037 -0.14940597385943893416 -0.069620706866630147069 -0.072315926114646947309 -0.10889784810940633664 -0.05054860980390007974 -0.0243737998721868937 0.021049276468063364554 -0.091075657043820368308 -0.045343764092008714828 0.04062415268460393275 -0.054980037837900917752 -0.072331229742594066456 0.03826335221022955646 -0.011777418218243455861 -0.013197045044502787869 -0.012563842786108777444 0.0046446218520460012813 -0.040916927612353860833 -0.095596309405931223502 -0.081869254424917589641 0.016576035929609381908 0.038663690662127526976 0.082103315808698187905 -0.0033806482475229977444 0.060955686801082618886 -0.051178377970511793049 -0.021199657201025789988 -0.075969536101925319582 0.015898125151034250141 -0.018886871368834361878 -0.076975678945057107727 -0.025495104774849529361 0.041237005316643739194 -0.0018993698993716428419 -0.022814411416537928867 0.024612375338007655423 -0.056634368670548877744 -0.041497176553311754255 -0.089365763017134128288 0.047240301597138885381 0.035487274785994830928 0.060395920483339991802 0.052582693033466409993 -0.017287309252020183203 -0.023540409685966826731 0.029182878745204740567 -0.10531100661665664109 0.057325800192057053961 0.076307473859155636187 -0.014908015613151704912 -0.02291549325331151965 -0.037783243810457382839 0.046218596274963850978 0.047318097942642682596 0.0034632502849453934181 -0.018271201109554147807 0.075011237099412014784 0.029765115224367724028 -0.039183667377849819291 -0.082264127614483123496 -0.076462474595980739478 0.022298424058597953595 0.0099596953652101773841 -0.092150418586966001411 -0.067264474870423196506 -0.114270131464173752 -0.064605590552962929851 -0.035884519738772713282 0.043824050868852916507 -0.0067108167885018233864 0.058603067984497762832 -0.020431835068838118119 0.035851962287968969223 0.0030976359191689220238 -0.091043368133030419531 0.020787714913353370905 0.0098979232193627010583 0.02339309819382867292 0.054384085860326343564 -0.066075157350309013382 0.014906386115112378599 0.095264216971100351694 0.17647949029999909776 -0.002428026557092037227 -0.012618480094122553128 0.07095983540879917395 0.065271471604860950566 0.046294156084589921374 -0.056532825201014137717 0.0013832794523784789232 -0.03447739945520472693 0.046835797408307670853 -0.080399720737589233654 0.006716589870527628521 0.081625659440051762106 -0.048764423145089996758 -0.052636872075040967711 0.059088484269377961056 0.015714233203297640201 0.10382705240810058411 0.008870997468072079617 -0.013077766482610168192 -0.075897893573595137662 0.035087963893430142159 0.037269618532892803686 0.052704467216474946978 -0.022383498477949150679 -0.038194851247281579043 0.1105570620291706635 0.06422379636174224693 0.025876753535655910854 0.11153056104152869743 0.12948995100536961345 0.017366222373424122088 -0.025504886119880779832 -0.052737467474105848009 0.097308127616535636251 0.078551232506057500071 0.05937189658273227949 -0.036084554169566011861 -0.079694069182712573562 -0.052281515232267067317 0.034736029590462409733 -0.0015768777508578567595 0.11743121571138590009 0.035080839769763970393 -0.033796169521245367218 0.097952565527260448963 -0.032491451562319494106 0.087002485339289920008 -0.088398364750436775328 -0.096509546981068533578 0.014872189904470128202 0.029729513179579596799 0.049672493088122250671 0.0035302824519414322327 -0.01294208989432316971 0.083151110781937126459 -0.011067141948566538642 0.042500566150234175833 -0.036210325767412662734 -0.028561369496316917765 0.079570439562756431484 0.10848213955718773172 -0.0051509379039166103623 -0.020957225965547322116 0.033643157307092434738 -0.011991182781559530171 0.082883824687013551991 -0.052899029197150927717 0.014352452983464273478 -0.040185852371616190282 -0.00091325723412880119995 0.077625906827568855184 0.041259608319061245874 0.070205864076303498011 -0.059638770115212548506 -0.012433510749492469871 -0.10196083770471683905 -0.090389588549481772461 -0.12341541667653253833 -0.0015824826790794617893 0.052486616841445600523 0.052658987137355020569 0.050582363506130316455 0.032027312425238360638 0.036581681666933867081 0.027896904130413509998 -0.026049238243733223441 -0.037907300648549378808 0.064488120936366952196 -0.018196213373283948167 -0.042429981305881638021 0.011670335121922611327 -0.0060409200620920120578 -0.035658828048893621843 -0.064609880217711981865 -0.0059675920542367217464 0.014663598394785226989 -0.019096727779744616937 -0.064346304909788390458 -0.051082919861499424818 0.056584741890992926172 -0.085551586310188887374 -0.12648825117395140483 -0.068305755778161419967 -0.044685742474296019644 -0.0358610471938743125 -0.057928380993620035011 -0.077752132511841112739 0.05413029713573523638 0.026888315961214815514 0.11408186638811508573 0.051997718071921099348 -0.085087971152305513778 0.053806612752037213943 -0.06398297700104285668 -0.0014023300473382496658 -0.058949444641042701709 -0.01593352659278613262 -0.015436410719651582485 -0.082259391004747509091 0.0036567129223543624883 -0.084497480064590305138 -0.10277054721642826796 -0.078179400063134077414 0.02008929325722052725 0.017012282157946315847 -0.037725476052375500613 0.070241759827004771055 -0.028058197505105870323 -0.11657831847549667004 -0.044827833331707769848 -0.029569028706339022666 -0.04287483042715489745 0.080847999860874292244 0.013491348963736295857 0.060059484246461805612 0.014578354957839202016 0.019046599916265428976 0.071200703208248380949 0.03150346914948662369 -0.017067606193849244739 0.0021336620458719144852 0.01856029363208002575 -0.03074255851786206889 -0.012824135862961476978 0.040684366238294730755 -0.0094469548624552604488 0.051946457657017899856 -0.00058909335719261885899 -0.044188437723059137419 -0.055495142514697608227 -0.0093561945756233510368 0.015882246435195240125 0.0064567074879908420773 -0.044055371145369115471 -0.007451126237031146203 0.021503542893619165266 -0.044059561956887795253 0.044218851675994839956 -0.10631299963603077496 -0.056645942869062396174 -0.05170959192820442224 -0.073158964742266782699 -0.021964820868054794195 -0.094080359879072844587 0.089045119397175631626 0.026907385601085225674 0.0120326680810879591 -0.053289044123204280801 -0.065383934622211439813 0.046751131385446155486 -0.024633441980038191937 0.1060716801947032828 0.015944986406106597537 0.07302099968003564201 0.055303249478104936354 0.0029374665382514274919 0.0015565400755546084967 -0.032644263791045423362 0.072435620677185688643 -0.065607808746371551467 0.010399974598621351471 0.010308775723860515855 -0.034377206972991236622 -0.083334272494699906941 -0.094600207370150332653 -0.09264205598099488348 -0.069687182224113949913 0.04794849275331515559 -0.085882658328753344601 0.033051121097669070026 0.022150084184289701994 0.02106496343287533185 0.072434775537170634219 0.0044373558936175293982 0.055819849005967890621 0.090264325613184356878 0.08581538831309377946 0.022528957988178076322 0.021955870994374439287 0.03930873885000790019 0.01704704077817592589 -0.011372067342529138326 0.017219364215767991172 -0.016408901901844321486 0.017258362371598848228 0.0092554966633911963519 -0.029050995084023777115 0.077483981598277670844 0.0750571132178797229 -0.008388775677441473802 -0.031807994206855115527 -0.015831325218476206135 -0.012187336843766988573 0.025022450732365843218 -0.051570794238962859579 -0.019739864799194154626 -0.027232064316591610836 -0.025543487930180294038 0.045617350657974217731 0.060832640539995264106 0.092743347330177167143 0.038615678713333073668 -0.062407098725046440679 0.078300787353625028731 0.043392812583866860465 0.025833224378484554579 -0.014634115707590919508 -0.036448388615125462686 -0.059048238747297907003 0.048276968514348699013 -0.012138740379392200242 0.055083305679426673718 -0.10983163024231903937 -0.090579316675400992076 0.007284165433834323064 -0.0409685326734901753 0.015501314663831243859 -0.034002548847500056739 -0.026439315709663738924 -0.013483211807275007413 -0.0073415446050500120234 0.10248242749304505017 -0.13121500592782148198 -0.025610899967239000169 -0.015490382924372405465 0.073926788778240701272 0.055909686690373792961 0.11659289966318234222 -0.066766325253775890558 -0.027005725921117770122 -0.0049480317956125128079 0.11337984470011933102 0.020966317010731053139 0.091159466747594355973 -0.079654637856524379558 0.066443143613010943738 -0.054405138646431018545 -0.067403661874192430381 0.073665876689958331713 0.072095216331955286337 -0.090505201951189523379 -0.036603048251997220841 -0.046522620851784601825 -0.027294667582758096874 0.015648603781739305746 0.032931076654251857649 0.090787764386525124372 -0.054801067418635628081 0.027911340000585822818 -0.049006335651527080377 0.065063863831040777419 0.040405073869053322044 0.01437341939799960909 0.10072862750346225913 0.051512472061987821248 0.10539643670918348584 0.026167245187139469287 0.14675127771820720146 0.0321134202152205811 0.13211601485314022897 0.057300293304111127313 -0.070225695129849011189 0.078274022009333671379 -0.097601257000826224797 -0.10379104213530443435 0.082509108029333019796 -0.013088749574423552344 0.025575085728231864574 -0.037616341100442575451 -0.031962387165336128558 0.073123288877071604408 0.073955379562480702549 0.011784379039039718715 0.037486235388119168443 0.04260309816729335175 -0.061866457297515893565 0.051172445957737892896 0.066111590889227786483 -0.068487588724829809306 -0.074444011914945110164 -0.079419643141934948005 0.050142426583219677771 0.047555901653368218285 0.0064273563170602170114 -0.026118428374083561827 0.066264969595173139894 0.08861280767531834468 0.049493952238809472977 0.077488284232906559645 0.10711191306161156611 0.1240885237291763088 0.036684421879532171096 0.075983210139741241829 0.011511364742502028236 -0.054637637331128412199 -0.0330808122273685834 -0.053520995975201955674 -0.024950087395132141549 -0.083812170266198221524 0.059429133093568210777 0.060920847311986790762 -0.024060049041650106993 0.023464727165834857459 -0.073948731684817720078 0.023475854857430280415 -0.011703145156405700758 -0.093743566401069497451 -0.04199181672100495144 -0.11037157564960388412 -0.038246173260165848562 -0.022346786858685879773 0.10565176678810507538 -0.021832762013788330202 -0.028027694503879038018 0.017095222133837215811 -0.0019938053069965765672 0.078744265121824183473 0.03824941157818424059 -0.045282434314446909362 -0.0050896638990179906073 0.022069205146879378177 0.10065658505031196968 0.0541281749191361225 0.047100167071492310411 0.060044465373626433602 0.02672336795803743198 -0.058715359844605560791 -0.014577412347642666052 0.06314441744698243153 0.058505062662485986247 0.079928176438084780342 0.041729038673013633953 0.020214701437646892535 -0.095801541446988006112 -0.090727261638672201949 -0.11425375685437744178 -0.014590420973665300941 -0.03918951327306213761 0.016897664087603979366 0.051127288972999250516 0.073031617197858736401 -0.0090512045080881915055 -0.065667782032022017913 0.023766493681206212613 0.035231237065820278365 -0.0026699346217144773186 0.11757269142263383765 -0.014000435188165566772 0.018941387881813948751 0.094863256130978373948 -0.0049406989028972208428 0.026008701461553714041 0.044037645275386436139 -0.11392559602425468557 -0.075405011332324287099 0.025814780386687163904 0.048375197939548628123 0.034788874449796274024 -0.051784227546505336159 0.0374749445542447851 0.055176263494135520393 0.013547127695435166872 0.056574775416284348029 -0.0083317690448071243109 -0.062830316755806275841 -0.13532285313433017881 -0.098197270655316720722 -0.086120279026459439775 0.062651332654499819474 0.038891392786015374639 0.039095822558110650269 -0.0030687894992359244541 -0.018743054732201971241 0.13814703103044653765 -0.023331454298772591471 -0.015304896022922061943 -0.030280914345191884546 0.033405150811763435759 0.00088168654020379056899 0.032110643784921899524 0.01152662870479159371 0.13009488731291030117 0.050810548351758147434 0.027816353656993697552 0.051615403171170803898 -0.038833910630380316653 -0.092542479302847313605 -0.070335567578744498385 -0.018246750983369613985 -0.070508181860337373892 -0.014857046507231724125 0.014708012329597798182 0.040511591116479568619 -0.024851369469322693445 -0.039699253983880050667 0.02378932783668100473 0.067673805814738099973 0.046027036435222712374 0.030746816066039132226 0.026164510876016885965 0.041924237526938280818 0.12664275009679196171 0.043708646136094292389 0.081014352782260462549 0.027101050746320611007 0.041426512874266532838 -0.026283853707717765719 0.051386542846837898746 0.094230830836880996593 0.044837127506088425566 0.021930651277777976627 0.09925537816096749455;-0.10558964754383075302 -0.15153722514230011376 -0.076197434120765794585 -0.061855704160445043605 -0.070376606269399843985 0.012647133781580367773 -0.041031413519899889719 0.0042400522246433198018 -0.057113104122104615956 0.008306165329376499068 -0.023045309485132323135 -0.053421917379736158504 -0.015035444205006716703 -0.020937705135517830496 0.022413278755787836849 -0.12592033157866219795 0.016958117796475883493 -0.052971545569113778762 -0.1028037478713840075 0.0039155026955212477585 -0.07100250132782569279 -0.023130555464067462101 -0.11250280708308120492 -0.0013887845451347217637 -0.052304124985621910926 0.043968005478771249317 0.040917131106343672398 0.00016439810634144341652 -0.019029914444886178448 -0.046634114905324243472 -0.084015501770189168762 -0.023471346227751172658 0.0015128179809592748155 -0.056479926170263324015 -0.040158506330380330795 -0.10705243514218333589 -0.085784427559061959823 -0.035743647092063943194 0.080676619797623014274 -0.010572937335623894262 0.069610230345263035545 0.0016306411702344775043 -0.0044215565168216029723 0.030068365487951654452 0.028214225696813068078 -0.019948287380673338648 -0.010521456579761069225 0.0071196495525172025925 -0.041633281781202742533 -0.11700560161196167652 -0.0037693387157391651 -0.055243725862255968484 -0.01790606930453352702 0.057379349192778705824 -0.090456014238119983317 -0.0088894305924748472092 -0.053276810340049572667 0.010164306451160936423 -0.017644414511235134713 0.069947346335904200809 -0.041326866666920307469 -0.065601764157204103811 -0.10155150696893140705 0.028363774231701364276 -0.076841444059378136155 -0.023764695171765947562 0.039697658598295514076 -0.0054452606096132925156 -0.090712762096600785267 0.03119362842354767712 -0.088051718555384780873 -0.095130943301533890666 -0.091531498358750240651 -0.12684372218351186445 -0.015537386727927673252 -0.03624104120212807284 -0.051400282915754040569 -0.10498590016089294485 0.049739293561612753225 -0.055309987440267563419 -0.040890479664839322893 -0.031177958919176924218 -0.015975034388171750754 -0.044217229366155103021 -0.0072616632359123189921 -0.015066698149759381875 0.070566034763081902925 0.021180628925967760756 -0.022340587923086407951 0.018371115430909634725 -0.044073127035742037938 0.0081057003064804889619 -0.052609171643191399159 -0.024567242282264045022 0.021046838342034707853 -0.064219529895974680755 -0.062382649331249845348 -0.025555576875236844792 0.048389082756658721718 0.017916163657595868958 0.042019668229390239045 0.024173663687516260684 -0.019508552922450905776 -0.017891485118897459961 0.037838777318648535164 0.085339506031389525398 0.020118637862065906485 -0.11546601568211702082 -0.082266915391048606176 -0.037380666103199622352 -0.088135007267553411303 0.0018708715171400791023 0.054801634720949232715 0.054554435973583982611 -0.043530333977926639888 -0.09133813716468509869 0.033812110841268651351 -0.085894159293324251481 -0.037991958556164016902 -0.004317847100934284893 -0.013223386787470580231 -0.088791410045788735084 -0.073958680679731686469 -0.07861547291904485979 -0.075615519078979412382 0.072858950930272212143 -0.049122553364466928216 -0.021343609326488068717 0.015089452380787094291 -0.037923496459698412264 0.096171879098608470393 0.02249246322438836973 0.0095963086745784031278 0.05083385352976154542 0.0071589157264128448765 0.052336070721603664135 0.048905314493232071582 0.019685172175647525084 -0.026853805758113188235 -0.014485400541565366175 0.035679794837256278983 -0.021054573578473529533 0.057688910696115362764 0.068208994420310753437 0.023527186274118660342 0.0027987244502133299881 0.01907239271337364192 -0.060502286051248931054 -0.12193120426895223685 -0.037855480698501746406 -0.060199522256939370923 -0.11207145021201544988 0.0020950954664410844849 -0.043844197265937544239 0.058818870346003603033 -0.037615125340307892232 -0.0076354048364751106806 0.053176767990940301822 0.0096877275225416194931 -0.0015426457781330400309 -0.087274600058795656632 -0.0086106776509563484612 -0.0034743092041262559067 -0.074372915313036497276 -0.05361284104615329088 0.036906492629562928642 -0.041899755171496889938 0.062002442278464131586 0.045141730196122151209 -0.05620495213321277661 0.0058970973287358402146 0.041754320344169482127 -0.014326189278874872438 0.023887411307726785781 -0.1546870170103359643 -0.11071780094048992715 -0.08263077022786634307 0.01278043271208215842 0.0083509725325353091618 0.069163689048041085417 0.099741334125285574519 -0.0006446018438587355643 0.013055941807745366848 -0.063225012026451171687 -0.035773877297847520018 0.029776902469765671733 -0.097344049811519464677 0.020439588817425108358 0.025510190386783843097 -0.058000442151836084648 0.0026593019668686448086 -0.039498457289018643057 0.02968571991994576123 0.12805656816178193069 0.034881966015497645195 -0.06126281280744471508 -0.081320588236316521114 -0.045374352550957813834 -0.055548889711327237295 -0.081203446773421658622 -0.037833737420136445695 -0.11700948005082603687 0.027995704242612245993 -0.10579100155450425758 -0.076598940491679270992 -0.090762743622101543783 0.029665017116469075825 0.021153209968670476371 0.10890150641145393551 -0.01244043938399025731 0.069948582455323329854 0.047392394925583211651 -0.037755977150518794938 0.022996138033575346665 0.020044557509064274414 -0.045965574502604307494 0.029073635391450032561 -0.11413923383568679026 -0.07044413478608403667 0.1003482638215429934 -0.079232859466392580039 -0.0073520287179754967993 0.062255861179885664536 0.041496568973611293318 -0.059821202410437451791 -0.0082511081572976645304 0.035193767786469133674 -0.075293829986845334235 -0.071476033028286298232 -0.026392031530643393633 -0.0067613193467247496155 -0.032556093474851444114 -0.041672726046254437993 0.071826069314640000885 -0.013504825652046961379 0.056790977619185181724 0.078024910584136769609 -0.025770490135013413707 0.1007867156501251471 -0.052969470823756782674 0.081180333140604576947 -0.02733292721401395925 0.030947028119393985707 -0.0066316558492876820363 -0.11885760231370680329 -0.063650636413736583208 0.010953563746394761463 -0.077491618973140677373 -0.078341277334196546267 0.049854370344815476801 0.030988312272719739648 0.054624249977626160302 -0.051490812919805020731 -0.0022498210870836206354 0.025345048559749703415 -0.049881020799519337761 0.047303552311336767577 -0.017509585413507260804 -0.021465362422987643159 -0.047398382613905665206 -0.067600246757228948935 0.086322085999996647776 0.046626166979951894076 0.053285500939877557258 -0.034185772126947969185 0.074562103115103320339 0.10853524151254920205 0.028831197807694174812 0.002406814772677454313 -0.046017529025283179789 0.021275503010710877794 -0.09188744347739585816 -0.012233182134272980318 0.072327109292971078491 -0.0031503712050556000046 0.021057427775566902456 -0.0039399983856200897908 0.025494933257929116438 0.059546931464106049592 -0.021577767146441544088 0.011280222842506709702 -0.088550809308071867787 0.082771807098317093376 -0.031219726497424472866 -0.004814774534057014721 0.0056152329110696194356 0.0049743249709003891854 0.039967335761528700877 0.10309338185318578374 0.074705688625613150822 0.061759248914613790182 -0.014816228855304272582 -0.078223551499120760888 -0.0070285784128981529037 0.044652267865347004816 0.037076991055644645257 -0.079256075007541781918 -0.050732813096459598856 0.041039328803720867556 0.047580779533203901299 0.061854415099981352455 0.042195736575178853511 0.041617909142691138225 -0.054810505585746703561 -0.018240144988436186868 -0.03331574885579433043 0.058333893649708451479 -0.0016711274215935878473 -0.046121233960775359639 -0.044719668997976053104 0.044200404167314889803 -0.089416055641747996252 0.030918200693652454769 0.026771320015116593233 0.078530742356767491152 0.015348762014781504315 0.019571013270064701456 -0.030714742298170085583 -0.030069764768144012501 -9.5443478693794903903e-05 -0.049186841834178714195 0.0064306242097344114977 -0.05876779252308367979 0.041377671110049363268 0.048717523308378272995 -0.12210987222918721906 0.052658538457431465496 -0.049847776707866817136 0.056719455449066688568 -0.033850187781873916637 0.0083282579734294329143 0.036347094624205211755 -0.064370207934947853978 -0.058212278736967708326 0.01618643010345418437 0.0092933105311526799375 0.064126336280213774854 0.017690109863443149313 -0.039477209465744213246 -0.048966965489603074546 0.090703656533649784643 -0.039749893251548880369 0.085939253968451576049 0.062004434391219609424 0.012159454357415028225 0.0066766617527381317762 -0.032144244329978005625 0.03261286911102145164 -0.089298115527173857475 -0.020667108242988323913 -0.059018876867633990324 -0.061458303359850634251 -0.013634728299085147746 0.059352230431425810619 0.0076333353249717255176 0.089650357026688637374 0.016608823005082845592 -0.025262580538843015104 0.033470131789374843456 -0.022750940383273358242 0.011142304592511491704 0.032431707976728452181 0.023188257402025722054 0.027359444868807016038 -0.044118827649500744204 0.064855959158993572999 0.059196831095677270029 -0.040088914005117957939 0.00086765013026651044425 0.02826182613712609204 0.096326995195606932021 0.074956188978255969269 0.0388863144306482722 0.059831107510840184083 0.045052724950170042195 -2.0626440721017991198e-06 -0.057877941747197271527 -0.019144091398474241683 -0.014073758918748425009 -0.042576673066415916813 0.023172825807534977449 0.010521648747200323948 0.066967758819192715891 -0.045566962223133521126 -0.040012253706156492017 0.056801377245871732813 0.026727218282034934105 0.093967218669422425403 0.03190260132301754592 -0.0071557305333037023176 -0.05432595861850098018 0.056623711725207345746 -0.0038322522579847194922 0.064369149669289207893 0.077900664126623969663 0.017437590334407088166 -0.050144507017224546064 0.006169648555320912317 0.082415497166236223459 0.027618523630733679552 0.034247594410564324852 -0.0060702704185396135633 0.022800818295614623532 0.023814206792743437824 0.0048512757129794180713 -0.043513008876480123444 -0.03502886999934804596 -0.027505815063794552405 0.0060636506045377101121 -0.072285787642984863921 0.017551915052990630511 -0.022984049855451372385 -0.053486828185014163861 -0.056637114604975273557 0.061180019721830916635 0.0064619020886920609109 0.037607793442805924344 -0.016796028221852492279 -0.047441328820585673687 -0.0555046067729288925 0.010804101389255945168 0.092417152710407193816 0.008165355549481917441 -0.018863974369049362617 0.036670363401361455447 0.094780627741096093453 0.067341022940713327061 0.033852133607785321601 -0.053692679274588629712 0.067115920799950878894 -0.061504380999934521457 0.078944888702897592081 0.01460295006372881732 -0.062591660014875108442 0.0034534792996375593063 0.012451935985497812609 0.081504202886467869149 -0.055783953073216215046 -0.065987614595742288826 -0.092105050285363476714 0.03232539668264169247 0.067466231087826969426 0.011454321518170690331 -0.0044420058740731131058 -0.076342528941904033712 0.059339108324964633112 0.028911107494842554211 0.023634016339291498421 0.010440543346440671335 0.097906723397118408658 0.079402844716592854701 0.067917693720606631125 0.10315843858561858648 0.050144782993354640455 0.013349324837014720641 -0.10550366445905319523 -0.0709543710664133076 -0.029139133631303028305 0.012040337431384608505 -0.0086907201168095263299 0.046535415077436408093 0.0094313597964163151111 0.1535302582667368021 0.11842461694493615354 0.11323194601563144057 -0.079194042773796005652 0.010574336034238539239 0.0022562885146166864608 -0.057278442584046344865 0.099740703371363884089 0.0017667865186283566309 0.064291195443223633776 -0.077559142406477113441 -0.14734685823299695229 -0.0017525306001457152151 0.066028001420251405951 0.17277705700132878208 0.050686822713011892017 0.076432887256558598721 0.10585984080017117603 0.062268413965064869919 -0.054000356591937220818 -0.011739083227697663658 0.082405842378353535982 -0.042697257917560668683 0.030047893709899731879 -0.049568109502408211342 -0.054225178835400927868 -0.097942385297122583343 -0.040394561855509020232 -0.020026206940808449763 0.0054070132423041077779 -0.028559345033792309099 0.011567800776995778092 -0.054947490470165977205 -0.12662376317186865848 -0.12395389494373629247 -0.077328177925115051949 0.05339209300811252612 0.069081112677147948897 -0.077075841939106840006 -0.0031024126567605106973 0.037778519821074371676 0.032578204969272134273 0.10973547126361785087 0.015250268880381771808 0.095025398630408250411 -0.010049590701279580152 -0.013309588814645813282 -0.034873214323192486264 0.056548880284459875079 -0.039550587296637643164 0.065524740911030679436 0.10688193746886398561 0.034887366093772589903 0.01095045925535143537 -0.025091317252578772268 0.026095094788379204903 0.063294963870176981779 -0.0020736696461885169643 0.11056891566129835314 -0.031557882363387149138 -0.052684213977506999527 0.001310468892226118471 0.00077390864397168393843 0.15714074211076120569 -0.02596642441738624893 -0.083616724807320214063 0.082131770921439126165 -0.028934551482325963218 0.03215675265517067144 -0.031469897185935770401 0.11992095675383636355 0.04412206630409207242 0.12012876170502211071 0.0070123322630106033407 0.018534569590011158724 -0.02616422267555158776 -0.12763951183246044496 0.018452210291439310325 -0.028345107191625137227 0.057799210596551832408 0.1111718444068742484 0.069351800632042298611 0.06044710377592042716 -0.019188418215175005038 -0.0026224397817156304413 0.080092505995999582757 -0.080375613657378150445 -0.076569136034400187008 0.030091913958705043819 0.045856652269424189039 -0.023126103974091760662 0.073345724004462597989 0.12839177122036860013 -0.080737591291922705672 -0.056983810159066485002 -0.00021701539755239094513 -0.0069144312443658213774 -0.044712348891067704715 0.015286039531176130388 0.080759043793605087003 0.0091600383042451070936 -0.023541445860470838064 0.0595601649970594893 0.03997043163148542716 -0.010836216928095162432 0.0098140970950586735311 0.092926302562426676968 -0.0035252995500654393454 -0.032993316275518505543 0.039383246279786662813 -0.027056952158268955666 -0.058921102392268241699 0.022118993773104292377 0.044978008227130931995 0.099619189142017602889 0.072739528922260307531 0.087608691180742784277 0.065915758901263124536 0.041474852715757036525 0.037756271859788671785 0.088519928945627324168 0.065295947451776692461 -0.034905659882141580608 -0.014706530440420615552 -0.022367702054027271963 0.0032294430317779906393 -0.013791299405801470471 0.017454443265411529601 -0.0075516617471478890075 -0.043836651016701394523 0.0055088857022499472527 0.054664854294286878422 0.0094464256634772293675 -0.050543598947921083986 -0.029568088754283607111 0.053873540571558006795 -0.066762630615189402783 -0.012594682622624801815 0.015239616053601164405 0.022314212503099731949 0.077989572634166351439 0.041207514814621371002 0.018442438633030595191 -0.0029787301275812937996 0.055641851554666464652 0.043979749128870190833 -0.0026832246649452036122 0.14836789586402487906 -0.028974730721981395432 0.011160159235658141663 -0.0010911015563112203171 -0.058443849680475092045 -0.033107061628249445651 -0.048585725913620578242 0.079835462467639853323 0.063416231450270907355 0.10395575793471924231 0.073129466595725528544 -0.022146495115187968955 -0.04250389120822637562 -0.041479275457949056627 -0.084143058858145242107 -0.028276224064411704245 -0.079679042387497678313 0.085975522654370389875 0.012589375408846446153 0.10068072918660730952 -0.019628919313610517644 -0.010771316212322844599 -0.013335437114469075176 -0.012285434884928671598 -0.033224775886526121405 0.053471885359124012027 0.13866729721642395701 -0.032061636684934828601 -0.0042521830104049456595 -0.034369059793955193671 -0.082659165294572345406 0.01975148970527073819 -0.0081717393632591752567 0.015485590321077474102 -0.069276361123138618936 0.15401231517857877362 0.10321316903414892718 0.0063402086534675664714 -0.019938672499955192863 -0.035742571476352784365 -0.1047541375227138416 -0.051945855465144734342 0.020288228369439068044 0.038254825348501074467 -0.035719656117881054547 0.028341380332582918888 0.051654936131100795405 -0.062493073675667629163 -0.0070756995814210211018 0.040604938166583094683 -0.08723336505706268118 0.080588798466870739667 0.045457675672267570943 0.061349152891911021279 -0.057589131208910210313 0.070258462621284240024 -0.041735236750386102422 -0.13302929054737658299 -0.0061578899628884908868 0.00018878575753910904061 -0.065601806569694540161 0.013395152331111770394 -0.09388598282257286376 0.085647689945605190442 -0.0084093090372827136031 -0.014880634733677315304 0.060064426882773656879 0.019334347506955167073 -0.0579739927930076962 -0.025571456328375777312 -0.063775480296155886983 0.011577008043502900678 0.096603555454550904535 -0.0010833333308081535655 -0.046770420035596400876 0.053443882940404363602 -0.050264178118121331795 -0.096276893133700275351 0.027022346487017092492 -0.031789680395909965249 0.092075334487723439758 0.14326344619388212132 0.055854191471324081408 0.0081951683002240947873 0.089625480887177699785 -0.052180433793284991539 0.051674829529616411739 0.0053814302693448133608 0.036221738742755721363 0.035258202310077889352 -0.054884434741148867276 -0.016453621808678833838 0.097657501230736368236 -0.023763767672930216635 -0.0020152330675328364827 -0.014577040081995732562 0.041638409104120067961 -0.0027653453577491538679 -0.06642705366871502759 -0.05394824645888133402 -0.069912485806307475555 0.016428323066973910677 -0.060598393647660564465 -0.040934913795411274895 -0.037694740254423521331 0.03982430245874345881 0.063026549717426633146 -0.09388871157561728964 0.11904408779480663005 0.02239815252477327101 0.014544941596917149856 0.065803726488014566143 0.022818247356740147674 -0.072617232516224608507 0.020110063768561781128 -0.065398383002946008924 0.078005508357575886746 -0.085731545964477226529 0.026735675801663961321 -0.02613002370753311765 0.050519486687861540897 -0.00022919730626798405851 0.025053506586823127977 0.048555179741347632982 0.031506933472165744858 -0.043471291498093048156 0.10256892981649985697 -0.018142616688332124236 0.057585276353591417775 0.021610587916700747108 -0.060567248207824532502 -0.14779275786465792542 -0.044726281708474736887 -0.070807857622467371139 0.044002903959234465625 -0.063140405043744005087 0.10195795593756146191 0.043998496043085380536 0.04220502975530853601 0.081145750813870459739 -0.058646503093437503396 0.056076359713022681797 0.080041376389909282829 0.049726195707339174157 0.063558675304177580934 0.014160596260563210885 -0.067797939622320876896 -0.050075015180754911537 0.079721753746696905063 0.059887320860797094157 -0.06875983099825704048 -0.07414568246011132846 -0.053611706891804444819 -0.099352033336604236857 -0.087806347609607107718 -0.044178837048838535961 0.042763668208400329451 0.00087477740368108560572 -0.0081115040845156274191 -0.016889814299070243786 0.013512656961944669379 -0.060347457165843255977 0.010739164809181772631 -0.065616410772296712706 0.045198555074814378285 -0.076875563324811713173 0.04139631430214405633 -0.014975223309566907878 -0.087726664276636459605 -0.085395726474404617945 -0.018896427172112432308 -0.11112399925001001377 -0.066372486272279526687 0.012528731387811121306 0.012808298433262655866;-0.15396134459618540657 -0.06043083996800341362 0.014832503203031050659 -0.013783236704401083395 0.074394039397432012994 0.023657464211735642484 0.068192225699480288337 0.055082244931267183852 -0.029805227371873098396 0.073606680968072463189 -0.012210488331343406082 0.014535575676116196248 0.08344577552788576269 0.041186852949642770161 -0.0076443028203329469253 0.07476036808443545234 0.14362141279977502784 0.037960463766468097169 0.075744570337724761999 -0.016536039489745333469 -0.11277564191669861571 0.011713744558711781593 0.030095643015755877553 -0.049554843089621831986 -0.0079070502790761706957 0.04887612989383981893 -0.09884507119313641621 0.02341605798476995709 -0.12618834375855034202 -0.051192649929466281511 -0.057151117054213933233 0.10784609453335566864 -0.017975295016762572742 0.0059000338845753650535 -0.003046707512823395355 0.10429300945443904791 0.054111803796168991831 0.062317069207445480172 0.082392870850936272831 0.15275706109683953593 0.065099475223773073385 -0.021626044548259702044 0.07341151874987095205 0.055248966535102361775 0.10597723164725419975 0.014718834295404107509 0.056432945138677581554 0.045659338858079746848 -0.05084916694589589059 -0.04170499187390006024 -0.086336406128491194334 -0.038504046820346804481 -0.056763066215020946403 -0.0048273488942084620199 -0.077264540309637266824 -0.0006578231108025279399 -0.18405779181265508049 -0.051598117618958300179 -0.084309550957694670559 0.073515617573033709142 -0.039036477640426614499 0.015349703247362216779 0.049224508907502913246 0.051644962803612477764 0.089239276138567941166 0.0044182343344460056622 0.047904089612428285561 -0.016120731454100450941 0.097396708824832339824 0.085238809630544087881 0.054302228687364437199 -0.041333039297149549995 -0.019737435800458977969 0.036158786582761733019 -0.038068113752576168696 0.045151280100622429026 -0.066181536574400484652 0.021419304605956968751 0.012932757623780580594 0.026942697180508127369 0.10609408060094012438 -0.057051337708528319925 -0.068313457489728654504 -0.050837711418357543758 -0.19177300165307800683 0.042428452256559098799 0.0043884808118771516036 0.014650240247587282411 0.022795637838158858829 0.053404485396354971216 -0.029779773536820725727 0.06204823172828098643 0.11635320445939063838 -0.099828753739584122351 0.039802962034226264942 0.11635419272073746488 -0.00086339141149863228922 0.097327029739324652513 -0.022465394851299169687 0.010714019923991260214 0.013075844816197501608 0.058804271562901168358 -0.005442482830816418489 0.083266815569918148365 0.031460148732246173697 -0.014211571418034101358 0.068602004021214343932 0.033500635439139288263 0.08506092738577727963 -0.069195684727992534668 0.046612615650558589242 0.0091239311640259803532 -0.046877576241771488907 -0.05698689016049703765 -0.033312620036186776917 -0.006450344780949929073 -0.0073215014888147146241 -0.10631381002476653075 0.030930743175993525435 0.075113579261698842915 0.12341174078988269291 0.070006736282237427837 0.13477438496811963708 0.095901557454767916155 0.015746677361491118879 -0.0077397973145602568315 -0.10888328616347316136 -0.044107438895683970248 0.054179769306472849721 0.067715738886472309765 0.100599426549881521 -0.053572289299197634049 -0.021510949355020510948 0.03652375071712501281 -0.032792838857282458065 0.067359651475497814288 0.063660737458479957351 -0.045112390943820919464 0.012531469022379943326 0.037565026091249516249 0.055985765716821997429 0.012032425280226155886 -0.018994962673938357162 0.0507877933860687511 0.076491382723349155004 -0.032121633866995714934 -0.058621884730671300345 0.10370278864962334531 -0.031163207326397338037 0.0087632725873499350833 0.10664266336048928985 -0.030177041878148722076 -0.02743811588120777592 0.033095514551880603205 0.012309761199502635559 0.052321938166468205667 0.045998171571123340484 0.034442425168176193928 -0.11771129254457080027 -0.0020015825825660049989 -0.0094874613320465074617 -0.038145126998930779794 -0.067906514739600493114 -0.023764425971923214265 0.036883050074654685768 -0.092072685331325759828 0.022548288736880816446 0.021793810972830906375 -0.1073181873551239951 -0.091446055571987192034 -0.1072768666171755314 -0.038246333799138429455 -0.03804615901166871067 0.019990605187223630529 -0.011083113543018368458 -0.073959884222404639886 -0.097494897110009456909 -0.037600269657522014666 -0.051634339014407351631 0.025110792427202561355 0.074606510348511054231 0.039993400207809587377 0.067245698763169839407 0.040222368702824792819 -0.021369776742526692959 0.062150988929990984289 -0.038304506381740786869 0.080623618751835809948 0.032589093027891487264 0.038240837133206612153 0.04277983730359140313 0.0009106571676915399538 0.020122162321182669731 -0.017582998553681918746 -0.016203751012433691842 -0.024374451528524264388 -0.067390364576492917115 -0.012856017152099729478 0.00071754495198102198009 -0.077155565998947031603 -0.024063929422604896785 -0.07204595440696751063 -0.04951589288661254612 0.019989115984819574856 0.1721645747960910966 -0.0017239446317383550281 0.045208392392571065954 0.0064795985219666890967 0.12246560381596578726 0.077131273455124590988 0.073919052923284711554 -0.039719453706537011239 -0.030525007672881413617 0.089892506251788267813 0.021682949369365076692 0.10730805131362873561 -0.032030033399292175134 0.031691764680514183938 -0.03060043000507598962 0.028325617081115452012 -0.022319669084733987502 -0.037179153644999324291 -0.017668711152169357115 0.10774033523778837884 0.027649152921773955532 -0.0011683078751507603929 -0.016905473674710416732 0.037418656822586243704 -0.050352633804203038304 -0.051859771782641277127 -0.014673572602184162955 0.04731290170291780478 0.10187070200067702141 0.083636908579196797553 0.056927002276390678559 0.049252428185492511115 -0.028555488583495519661 0.0032247913721710403691 -0.095466568509893254268 0.085771331843102913139 0.0027958934559613440179 0.08173374260033480776 -0.036797423924289356101 0.081454914306569564664 -0.027946910065982585869 0.076178248194449238451 0.043930970817184264443 0.032970650294487528764 0.040137455468658621294 -0.026922805486437457329 -0.017420432008648199795 0.12648261032974580931 -0.038817783423202717463 -0.054557935666318314871 -0.017770973954710719139 0.045282591599465099597 -0.071011845515903532222 -0.0098309602552890014426 -0.020363232631055667998 0.12509208332251287032 0.021431059174851781191 0.15940092350446488645 -0.0037859342701720755976 0.07150107747419963411 0.031623180919295848512 0.12029994049669739953 0.03471811315054004754 0.033212325474677527326 0.049718435213586001375 -0.0089826119076013271475 0.014781228514780917968 -0.025590312577423317969 0.034598084232497709756 0.030000611817463565534 -0.072525915026870710345 -0.014251208691791975719 -0.029260709693397328468 0.081958104274402851508 0.025864209277734719755 0.1050854031523417581 0.12669578615276219646 0.0030631722380054697899 -0.041029385855796601801 -0.048575119636346759944 0.087601320388197165268 0.066945793671603734398 -0.064234181400130180295 -0.008312046194700077259 0.11943211929795242987 0.069100529906586577455 0.045836159885039383377 0.093945557791411116177 -0.021421660361114688853 -0.022268109532122205146 -0.017388513771441609784 0.037485732356654401232 0.084373884760245945746 0.073929221860331531535 -0.071877799789533791675 0.069830173317111651765 0.047565799272069594905 -0.042030712572698247786 0.0080718053302303964525 -0.11235713316404051521 -0.034855766776077351521 -0.0062810296652410640972 -0.082805870098415362834 0.046268158458765501484 0.076367263530030815577 0.014112179323578586537 -0.039690492610079390612 0.018633930320150055709 0.024011244575157682929 -0.016516166752007482854 -0.021143151996253734676 0.12452426698483651246 0.11825922530522513243 0.032536449178668859494 0.10582547658832314186 0.042512787847872240965 0.07767256207771731924 0.017462301186601820319 0.047289610308125874794 -0.068981732449728536127 0.02879928269141692615 0.098072189342992360794 -0.041048643416214121438 0.037262077818360793413 0.012785892326107521286 -0.0015748327561568467407 0.012622592393580517323 0.1140638429168161494 -0.059511591920912057518 -0.027645984446658364991 0.025489342143482363046 -0.024001368471784259584 -0.015423174700665211179 0.0093525442800488304412 -0.10574212610207876784 -0.087568245440873618279 -0.0036599921996818196232 0.07722932869759426 0.024664028840970471379 0.063965852708269169136 0.14342152127386784133 0.12131301142386184677 0.044348719818017849625 0.1389080640800996469 0.051378582989000477765 0.035486700344534778673 0.021553172387309717933 0.06124768818120261693 0.056671741015447668621 0.051231812158766265597 0.019977321130766192286 0.04896277727867166113 0.053318983926305657528 0.13907080469506935549 -0.047767649134797814103 -0.050111607288786962078 0.020573452320884512423 0.058475005390458287269 0.050695962030928909403 0.05813069072255740849 -0.018714077833602502099 0.050225098056063198493 0.028070236131855420825 -0.0029657076221814913757 -0.027490672673812471816 -0.047914088052163128495 -0.035645460532742860582 0.12250226390133578391 0.10656619599663454123 0.1294697737572539642 0.15220079440239708823 0.11506714674524755326 0.099342584065516228997 0.086761169214627231749 0.028359675871453611518 -0.039957731143916402905 0.054830946201866612166 -0.086012005946314099014 -0.033018370887477554998 0.12458034053862225565 0.0088646010032212806118 0.02949315296268051334 -0.083968556620797676904 -0.021581797732013414948 -0.064947539765304679316 0.031538790604807125095 -0.047245906544320911968 -0.0095234864622515159882 -0.023609748471263229674 -0.051043970085118656188 0.1211030269329393394 -0.041521471024160205854 -0.091787558793468781992 -0.089232233082808906643 0.0072317207138457373708 0.052274860771440986862 0.042149043846212867759 0.064051167432568528737 0.0042727524556342025633 0.049615979518845457208 0.14771851601128210829 0.018563591540944616304 -0.060810819256279076417 0.086144641643217889637 0.033345857074143642196 0.077988830652392718279 0.053710857623512041348 0.04239177854268355583 0.066412242102706062208 -0.037711162762316188801 0.070025417895020966585 -0.086186771976356518765 -0.016555793587404079442 0.024666326534306774743 0.0086378747371906490493 -0.0010041061913641027847 0.1138442030521574222 0.10172043205275201061 0.015703342921491943857 -0.063044047096835906241 -0.044381204855710905399 -0.11889535163854152156 -0.10823112068909934713 0.036323466646727149698 0.045469011475559165114 0.053389723170479450043 0.039172285742596596458 0.08903452432555926388 0.077538122619604410435 0.082141173773339223874 0.06086094502892864383 0.0020760192242343109351 -0.035074029868081120498 0.0042119156632381780231 0.008000966395715857632 0.046368016810839560171 0.11911083281098336362 -0.0048650001795910698468 -0.041319524655245763733 -0.017783507105936964543 -0.039532316996407010357 0.035084567206420162744 -0.13444476377876232731 -0.03218408012694874698 0.014362867137309574816 -0.012813724879661607739 0.035858782792984433829 -0.055473678011041256675 -0.059143869153832115404 -0.098268335158461783685 0.017859695935562209385 0.0057022057161647725712 0.080740841243234953706 0.010204014967819250922 0.086690032657733465116 0.032979467005336743357 0.10267987454460004992 -0.022094077232580045661 -0.067967284605889244364 -0.018421076949257476213 0.058051987861925377632 -0.057787498579010818101 0.060866148195854494207 -0.017309098750997939375 0.046295413564292266229 0.097868808028814049949 -0.052703716221030191824 0.043189780051347409495 -0.096264612410910166407 0.039745817866504731808 0.043097422644500407718 0.084884063898199912934 0.057665523466381339579 0.07285784120026521371 0.034990197457567005779 0.046758219949112840574 -0.040863991565804516637 0.0024319651203544398639 -0.16687182931651606266 0.012832524801247382346 0.018357481817731762658 0.063696839796877263717 -0.0093136651653933331951 0.055195865545323630208 0.03942153469544436295 0.12760990472602379286 0.042156371912976296767 0.0049582424867145183725 -0.017458052848475166807 -0.0046697201659862226306 0.073327439303749950006 0.083624811465853224335 0.068914479280480722689 0.027964011359233331006 0.093959302665947583288 0.1102645480782348808 0.024348408388618198589 0.074107592831856125559 -0.048741284873545627498 0.050528854759733288216 -0.028117462407940229524 -0.1284451573649522671 0.05194397889102506799 -0.14913086935018332602 -0.16513144788229508486 -0.083560967411788450443 -0.071219583583426504525 -0.028528168057751254749 -0.062401314601208388022 0.014647770396696549802 -0.026139382571993045878 0.0092880411266281874549 -0.036500745769015484343 0.12247305631150702532 0.0091474660568169920138 0.077502341554145925961 0.075461938051017390938 -0.045638970746157685177 -0.056823938858337343094 0.0037863505397972159992 0.040380068635888138884 0.055033954555362606109 0.022697480955409382597 0.017069282263411453965 -0.016934434966280768886 0.082275627605581005963 -0.042609935089591731427 -0.058373533867929351671 -0.07183048763406539583 -0.071410493916683956406 -0.031115310029035128658 -0.16063035965701086272 0.015230160951311810108 -0.044860398548107451033 -0.098875151481148948474 -0.09267933989650575799 -0.047253327985733825645 -0.058868291529580375754 -0.010450077654188240361 0.084932854553684308807 0.11974389208952640473 -0.020177707964130764395 -0.052668513053230302245 0.02109698735107039605 -0.059922141259827699233 0.013600946601368360533 0.12500033911744332094 -0.02046088630645255188 0.0091922462125658653542 0.014903065682437627304 0.0032161555939404173031 0.04594787860624689052 -0.070181614869072719842 -0.024376721934053206808 0.089521950565555383217 -0.095128136395032994455 -0.08211725362339750145 -0.024504565389920674595 -0.048661420166018876099 0.061109098169391466715 -0.080481922710984671321 -0.063851230173220197006 -0.072510713678699309503 0.043546669411088985424 -0.10045803252877719136 -0.16739754061855127709 0.035408354991541775292 -0.057317190175615186087 0.037418372508309753754 0.055468098282420545686 0.051763913220533412651 -0.045219387990642574693 0.089426797916915587439 0.0039021871740934381198 0.095189337195033793537 -0.0442073736576726814 0.064948962695539069756 0.067658499783640108083 0.05398247861751522686 -0.039015618855128914033 0.026583576482400839147 0.08193220397869349636 -0.016134056949589449526 -0.025102154298157475926 -0.086617387016583197168 -0.11492477263772314655 0.048340721420593264768 -0.095757879815598703765 -0.018255698904095965518 0.03410416575572579323 -0.025118890364714020758 -0.079333683859902331958 -0.0200750437743667208 0.021904234662590144067 -0.007952948323273310513 -0.030531838516137013717 -7.3842856803820345474e-05 0.073160317510280875597 -0.0091531055953200067543 0.002397381417269234434 -0.071327160566093200655 -0.064996631339910779235 0.00073240304299696423924 -0.0051126310942077000943 -0.071469686851050817644 -0.026740003246068483334 -0.012787370974812358598 -0.009721752839488537884 -0.0073880627885802383631 0.077999859345549454881 -0.023884390143975767207 0.10942682017134534866 -0.13730329639675664666 -0.0029241929072595126797 0.013284098010721610492 -0.038395619113122524124 -0.067180859184764588066 -0.046050194436650357388 0.050304291912238924267 -0.098779526884722732016 0.040575717593207077938 -0.085670613490146776958 -0.038798231041399212915 -0.024559402626640552958 -0.0020793424290830009836 0.0079293707541608967476 -0.045918650917145517609 0.061826102067151916808 0.052539326766602709173 -0.027724963524110794733 0.091264598223234044694 0.0047552170834397732707 -0.06214864006471149116 0.11057476205619390375 -0.051209892165428164135 -0.050596659964722762171 0.031422917590023254075 -0.066602810234300827141 0.1092723653133625128 -0.044366330122473880693 -0.096884469832241693066 -0.068028028712743382478 -0.006744086630262284901 -0.057949361502566125448 -0.026556134671088048316 0.031863338237785567009 0.018112710232353956136 0.0088395223375917937603 0.025883562021161616445 -0.048795301802600506147 -0.043815910003353164548 0.058760292247646728203 0.10244139844220970237 -0.015808517205400694078 -0.0070444573967157969943 0.10277220250200852503 0.073052172802878290181 -0.072030479127152893803 0.077402989821095724565 0.069485037991587506045 0.046927101633761791888 0.071016468386436978899 0.074815830750454323517 0.0052546997844123127103 -0.0096451990661962274526 -0.042084151478623502141 0.028354560790921995439 0.049044883086573266839 -0.15274303982948647662 -0.015371446270251144794 -0.077519282742844003442 0.033352712181398243285 -0.0092494584405791984566 0.0088796380705350747703 -0.025318184817309987572 -0.013887727941826284381 -0.019273830333203411519 -0.11999149685180030001 -0.061179158464609070811 0.0092149527100162560711 -0.014822622831855251924 -0.023349688729637024798 0.0095814250012045583393 0.039263403173569008664 0.042428473532106165955 0.037274752905692438987 -0.044527994041686523585 0.06962389271529235979 -0.057100878589698866872 -0.055677922720789710387 0.060245872970400703161 -0.04068572294870091699 -0.057801153441001049127 -0.07526945596437610575 -0.035084507510023524302 0.052513862241102514383 -0.059210017783045340578 0.10430560208774750097 -0.0044341050474258738093 -0.14571213510192460028 0.043265770077568051211 -0.008495212471153659739 -0.058306212430710546712 -0.0064344581393354673138 0.017577879180567173439 0.025828914191741950135 -0.051350482589805304667 -0.066447868096017950745 -0.027277486496168217717 -0.00060221652342859781012 0.059894076787592454014 0.10696154439094597566 